tree
version=v4
num_class=1
num_tree_per_iteration=1
label_index=0
max_feature_idx=9
objective=regression
feature_names=Pclass Age SibSp Parch Fare Sex_female Sex_male Embarked_C Embarked_Q Embarked_S
feature_infos=[1:3] [0.41999999999999998:80] [0:8] [0:6] [0:512.32920000000001] [0:1] [0:1] [0:1] [0:1] [0:1]
tree_sizes=2325 1113 2654 2225 1549 1029 2567 2405 2401 1471 2327 2319 2564 1029 2324 2333 2482 2656 2669 2231 2477 2559 2480 2314 2400 2329 2477 2410 1649 2655 2734 2399 2566 2481 2324 2404 2397 2333 2565 1823 2335 1476 2325 2483 2486 1655 2428 2414 2319 2658 2389 2312 1559 1482 1651 2242 2400 2500 2336 2533 2656 1749 2506 2486 1654 2747 2576 2745 2484 2489 2179 2401 2432 2664 2505 1481 2417 2493 2582 2322 2601 2580 2240 2404 1661 2346 2250 2406 1477 2566 2395 2250 2249 2580 2582 2180 2398 2497 2341 2763 2584 2500 2667 1749 1484 2681 2436 2404 2423 2667 1659 1033 2410 2664 2507 2584 2313 2342 2265 2425 2670 2348 1750 2585 2153 2515 2586 2766 2407 2501 1664 2345 1036 2406 2261 2503 2416 2518 2512 2497 2680 1753 2347 2503 1755 2506 1569 2502 2496 1123 1659 2679 2519 2506 1662 2422 2501 2417 2517 2768 2268 2596 2418 2245 2673 2448 1666 2682 2496 2421 2415 2353 2413 2594 2535 2420 2416 1669 2766 1496 2508 2515 2416 2855 2416 2425 2541 2679 2503 2944 2536 2681 2866 2509 2587 2410 2417 2351 2171 2518 2949 2356 2336 2948 2514 2425 2421 2693 2671 2679 1666 2862 2419 1665 2421 2526 2354 2169 2423 2592 2780 2676 1666 2511 2430 2349 2525 2594 2428 2541 2545 2422 2783 2421 2510 2682 2517 2351 2422 2676 2433 2607 2516 2345 2780 2686 2164 2673 2162 2428 2180 2350 2679 2766 2431 2420 2334 2266 1495 2433 2684 2786 2518 2600 2431 2784 2270 2677 1674 2540 2515 2686 2684 2438 2589 2777 2433 2680 2779 2431 2346 2272 1132 2445 2449 2533 2436 2268 2340 2778 1669 2451 1501 2514 2435 2339 1676 2515 2434 2433 2264 2541 2596 1679 2435 2526 2766 2595 2522 2350 2529 2600 2598 2355 2425 2172 2598 2599 2605 2787 2595 2590 1669 2173 2270 2265 2512 2625 2435 1230 2599 1506 2436 2597 2166 2366 2276 2603 2438 2520 1504 2599 2592 2610 2429 1505 2594 1498 2603 2535 2539 2254 1590 2441 2516 2507 2501 1130 2517 2438 2593 2520 2274 1580 1505 2443 2353 2277 2513 1767 2176 1675 2507 2440 1583 2443 2523 2445 2430 2431 1505 1589 1770 2588 2522 1681 1771 2340 2602 2588 2440 2509 2438 1130 2519 2351 2171 2526 1582 2529 2861 2690 2588 2178 2455 2445 2594 1133 2455 2536 2446 2448 2585 2447 2602 2780 2698 2440 2598 1587 2599 2514 2437 2347 1586 2448 2442 2698 1777 2685 2696 2452 2441 2441 2526 2442 2359 2588 2781 2432 2520 2696 2453 2500 2437 2434 2444 2362 2359 2604 2698 2523 2529 2257 2528 2867 2258 2446 2273 1590 1686 2180 1575 2279 2699 1688 1688 2530 2436 2505 2517 2542 2356 2607 2800 2441 2443 2523 2441 2542 2598 1780 2610 2870 2453 2693 2593 2444 2339 2696 1684 2868 2438 1585 2460 2367 2447 2527 2371 2440 1675 2429 2367 2444 2532 2449 2597 2607 2514 2465 2461 2537 2609 1588 2618 2364 2443 2364 2733 2445 2447 2788 2706 2787 2438 2536 2698 2787 2700 2704 1126 2693 2554 2778 2695 2608 2604 2870 2785 2359 2370 2259 2448 2706 2348 1670 1685 2346 2450 2545 1685 1669 2507 2693 2343 2446 2458 2460 1686 2790 2456 2347 1669 2441 2696 2445 2355 2795 2781 2366 2529 1417 2594 2540 2781 2619 2782 2523 2505 2609 2356 2264 2603 2783 2541 2451 2526 1587 2782 2784 2686 2443 2542 2505 2862 2534 2361 2777 2445 2443 2548 2688 2527 2453 1147 2783 2708 1666 2613 2784 2872 2694 1686 2445 2445 2784 1685 1583 2445 2451 2457 2448 1675 2530 2641 2528 2527 2445 1675 2786 2792 2360 2622 2447 2442 2704 2360 2532 2633 2643 2687 2552 2787 2791 2618 2530 2693 2534 2693 2874 2882 1418 2444 2791 1500 2447 2440 2517 2364 2447 1498 2442 2536 1764 2706 2530 2455 2534 2442 2362 1417 2543 2276 2606 2689 1417 2643 2600 2779 2522 2693 2606 2356 2350 2355 2351 2341 1766 2795 1220 2709 2873 2710 2550 2608 2359 2694 2361 2259 1503 2710 1417 2698 2513 2344 2469 2356 2437 2691 2357 2550 2356 1767 2462 2613 2732 1420 2459 2545 1768 2692 1948 2789 2545 2517 2645 2454 2462 2690 2272 2628 2881 2561 2553 2357 2453 2689 1502 2444 1768 2262 2688 2261 2543 2359 2460 2622 2635 2512 2268 2608 2613 2448 2356 2638 1762 1945 2697 2444 2608 2782 2270 2608 2548 2364 2439 2699 2468 2348 2262 2700 2267 2348 2358 2361 2696 2785 2280 2620 1145 2450 2181 2356 2461 2270 2267 1766 2266 2519 1766 2272 2462 2792 1764 2275 2694 2424 1603 1594 1949 2271 2783 2360 2462 1770 2452 2369 2793 2886 2874 2458 2779 2265 2451 2357 2350 1948 1665 2689 2446 2448 2463 2266 2451 2441 2601 2360 2460 2777 1766 2359 2363 2449 2352 2865 1749 2430 2880 2617 2360 2428 2892 1767 2345 2457 2368 2709 2453 2872 2458 2280 2514 2456 2627 2452 2691 2556 2698 2623 2462 1152 2698 2289 2362 2604 2608 2436 2877 2541 2375 2522 2536 2454 1593 2449 2606 2370 2376 2363 2509 2549 2620 2449 2537 2521 2441 2376 2450 2516 2286 2444 2527 1598 2189 2447 1226 2359 2358 2447 2364 1424 2550 2269 2437 2638 2459 2456 1423 2440 2461 2471 1755 2630 2621 2456 2456 2355 2295 2360 2454 2332 1857 2545 2635 2600 2558 2437 1423 2372 1150 2466 2356 2723 2633 2705 2523 2363 2265 2460 1422 2636 1420 2191 2451 2285 2353 2450 2284 2727 2554 2794 2701 1666 2460 2265 2178 2556 2272 2370 2365 2369 2471 2480 2340 2622 2447 1857 2653 2625 2697 2457 2700 2343 2621 2436 1866 2455 2198 2637 2345 2366 2358 2467 2469 2274 2442 1952 1950 2272 2429 2373 2423 2265 2281 2419 2423 2458 2443 2551 2639

Tree=0
num_leaves=27
num_cat=0
split_feature=6 0 1 4 4 0 4 4 4 7 7 1 1 4 4 4 4 4 4 4 1 4 4 4 1 4
split_gain=52.1834 14.1644 5.65511 4.46474 3.69017 0.964919 0.820258 1.52272 0.62988 1.08253 0.37123 0.177398 0.642426 0.614159 0.122327 0.27245 0.0670766 0.131073 0.0666667 0.0632404 0.0631408 0.263135 0.171237 0.105852 0.0484848 0.0175325
threshold=1.0000000180025095e-35 2.5000000000000004 6.5000000000000009 26.268750000000004 23.725000000000005 1.5000000000000002 7.8916500000000012 15.372900000000001 30.750000000000004 1.0000000180025095e-35 1.0000000180025095e-35 32.250000000000007 26.500000000000004 9.4791500000000024 7.910400000000001 13.208350000000001 135.06665000000001 29.850000000000005 20.787500000000005 9.8312500000000025 20.500000000000004 7.7979000000000012 7.6875000000000009 8.0812500000000025 18.500000000000004 14.456250000000002
decision_type=2 2 2 2 2 2 2 2 2 2 2 2 2 2 2 2 2 2 2 2 2 2 2 2 2 2
left_child=1 16 -2 10 6 8 -3 19 -5 -10 11 12 20 -14 -13 -16 17 18 -1 -8 24 22 -22 -23 -4 -25
right_child=2 4 3 5 -6 -7 7 -9 9 -11 -12 14 13 -15 15 -17 -18 -19 -20 -21 21 23 -24 25 -26 -27
leaf_value=0.38075143105298187 0.37932718862873949 0.37946648481642276 0.37633476438631525 0.37841809771964857 0.37657027163269202 0.37682718862873948 0.37766809771964854 0.37936637358171754 0.37694750948435446 0.37831809771964858 0.37689370747574613 0.37591809771964857 0.37751809771964856 0.376372643174194 0.37659377339532424 0.37591809771964857 0.38044190724345806 0.38091809771964857 0.38041809771964857 0.37806095486250568 0.37630271310426394 0.37591809771964857 0.37691809771964857 0.376372643174194 0.37666809771964854 0.37616809771964854
leaf_weight=30 22 31 24 30 23 33 20 29 34 25 41 27 25 22 37 25 21 58 30 21 26 41 20 22 20 20
leaf_count=30 22 31 24 30 23 33 20 29 34 25 41 27 25 22 37 25 21 58 30 21 26 41 20 22 20 20
internal_value=0.377807 0.379606 0.376849 0.376734 0.378378 0.377557 0.378789 0.37849 0.377828 0.377528 0.376447 0.376387 0.376464 0.376982 0.376199 0.376321 0.380702 0.380749 0.380585 0.377869 0.376323 0.376267 0.37657 0.376099 0.376486 0.376275
internal_weight=0 263 494 472 124 122 101 70 89 59 350 309 220 47 89 62 139 118 60 41 173 129 46 83 44 42
internal_count=757 263 494 472 124 122 101 70 89 59 350 309 220 47 89 62 139 118 60 41 173 129 46 83 44 42
is_linear=0
shrinkage=1


Tree=1
num_leaves=11
num_cat=0
split_feature=5 0 0 9 7 7 8 9 0 0
split_gain=51.6629 14.0231 3.97105 2.72394 0.268765 0.229813 0.0833953 0.0203556 0.0186732 0.000814609
threshold=1.0000000180025095e-35 2.5000000000000004 1.5000000000000002 1.0000000180025095e-35 1.0000000180025095e-35 1.0000000180025095e-35 1.0000000180025095e-35 1.0000000180025095e-35 2.5000000000000004 1.5000000000000002
decision_type=2 2 2 2 2 2 2 2 2 2
left_child=2 7 5 -3 6 -1 8 -2 -4 -9
right_child=1 3 4 -5 -6 -7 -8 9 -10 -11
leaf_value=-0.00022052515411015712 0.0029742074557920785 0.0015496831470065647 -0.0011357969456705554 8.4814617905435695e-06 -0.00082112816420007255 0.00029580018948763612 -0.0014553884650979722 0.002858170320590337 -0.0012219501434443806 0.0028290404219712528
leaf_weight=66 41 45 87 79 47 32 35 42 227 56
leaf_count=66 41 45 87 79 47 32 35 42 227 56
internal_value=0 0.00179018 -0.000953072 0.000567789 -0.00117608 -5.19291e-05 -0.00122388 0.00288066 -0.00119808 0.00284152
internal_weight=0 263 494 124 396 98 349 139 314 98
internal_count=757 263 494 124 396 98 349 139 314 98
is_linear=0
shrinkage=0.005


Tree=2
num_leaves=29
num_cat=0
split_feature=6 1 4 4 4 4 3 2 4 1 4 3 1 1 4 7 4 4 4 2 4 4 4 1 4 4 4 4
split_gain=51.1476 5.60186 4.38757 3.72004 1.41935 1.65218 1.25264 1.08978 1.23516 0.828091 0.791465 0.613027 0.364925 0.513616 0.688267 0.544435 0.309872 0.317818 0.230793 0.144866 0.133069 0.258533 0.0547442 0.195276 0.0989612 0.0854817 6.27751e-07 3.30214e-09
threshold=1.0000000180025095e-35 6.5000000000000009 26.268750000000004 47.000000000000007 27.825000000000003 25.527100000000001 1.0000000180025095e-35 1.0000000180025095e-35 10.316650000000001 26.500000000000004 7.7625000000000011 1.0000000180025095e-35 32.250000000000007 26.500000000000004 9.4791500000000024 1.0000000180025095e-35 52.277100000000011 30.035400000000003 16.050000000000004 1.0000000180025095e-35 7.910400000000001 13.208350000000001 7.7979000000000012 19.500000000000004 7.7354000000000012 8.0812500000000025 87.80210000000001 7.910400000000001
decision_type=2 2 2 2 2 2 2 2 2 2 2 2 2 2 2 2 2 2 2 2 2 2 2 2 2 2 2 2
left_child=3 -2 12 4 5 7 16 8 10 -10 -1 26 13 15 -15 19 17 -4 -9 22 -14 -22 24 -24 -3 27 -5 -25
right_child=1 2 6 11 -6 -7 -8 18 9 -11 -12 -13 20 14 -16 -17 -18 -19 -20 -21 21 -23 23 25 -26 -27 -28 -29
leaf_value=0.0017922465049702188 0.0015179159356789155 -0.0015730360466422457 0.00022480370906683114 0.003080882363849216 0.00030241023898124698 0.0028564453395930208 -0.00098585281616602187 0.00035368929803371432 0.0015724708075108736 0.0028870770573616029 0.00050704130530357361 0.0021245480386110453 -0.0018749525165185333 -0.00027409303933382037 -0.0014414147060850394 -0.0007513306698491497 0.00046731056974214666 -0.00058207166583641712 0.0010623416746104205 -0.0011344156828191547 -0.0012192185576024809 -0.0018739099919795991 -0.0011945843222466383 -0.0018737560251484747 -0.001127309650182724 -0.0015187199413776399 0.0030820510983467103 -0.0018736681789159777
leaf_weight=23 22 33 26 27 25 22 39 20 23 25 25 26 32 28 23 31 34 23 27 27 38 25 22 23 20 28 20 20
leaf_count=23 22 33 26 27 25 22 39 20 23 25 25 26 32 28 23 31 34 23 27 27 38 25 22 23 20 28 20 20
internal_value=0 -0.000948307 -0.00106326 0.00178123 0.00141263 0.00158085 -0.000246741 0.0013846 0.00169002 0.00225716 0.00112287 0.00274059 -0.00134787 -0.00124933 -0.000800532 -0.00136153 0.000100552 -0.000153934 0.000760787 -0.00147087 -0.00161238 -0.00147902 -0.00153309 -0.00160618 -0.00140484 -0.00173372 0.00308138 -0.00187372
internal_weight=0 494 472 263 190 165 122 143 96 48 48 73 350 255 51 204 83 49 47 173 95 63 146 93 53 71 47 43
internal_count=757 494 472 263 190 165 122 143 96 48 48 73 350 255 51 204 83 49 47 173 95 63 146 93 53 71 47 43
is_linear=0
shrinkage=0.005


Tree=3
num_leaves=24
num_cat=0
split_feature=5 0 1 0 9 2 1 1 1 1 1 1 9 3 1 1 0 1 1 1 1 1 0
split_gain=50.6374 13.7985 5.54598 4.27684 2.69037 0.948483 0.492266 0.599008 0.350068 0.955052 0.124126 0.118336 0.149458 0.0581878 0.0668448 0.0489097 0.0446995 0.045642 0.0444028 0.093421 0.0374227 0.0347146 3.28901e-06
threshold=1.0000000180025095e-35 2.5000000000000004 6.5000000000000009 1.5000000000000002 1.0000000180025095e-35 1.0000000180025095e-35 32.250000000000007 28.250000000000004 38.500000000000007 24.250000000000004 16.500000000000004 24.250000000000004 1.0000000180025095e-35 1.5000000000000002 43.500000000000007 50.500000000000007 2.5000000000000004 38.500000000000007 27.500000000000004 23.250000000000004 23.250000000000004 20.500000000000004 1.5000000000000002
decision_type=2 2 2 2 2 2 2 2 2 2 2 2 2 2 2 2 2 2 2 2 2 2 2
left_child=2 13 -1 8 -3 -6 7 10 9 -4 -5 12 -12 14 18 -10 -8 -18 19 -2 21 -14 -20
right_child=1 4 3 6 5 -7 16 -9 15 -11 11 -13 20 -15 -16 -17 17 -19 22 -21 -22 -23 -24
leaf_value=0.0015103263814340939 0.003071246807989867 0.0015355865889125401 -0.00053977913008286407 -0.00091970990101496381 0.00060267078793711131 -0.00049738054358681972 -0.0014741136055243641 -0.00062602347135543826 -0.00029568660665642131 0.00079102684876748502 -0.001143811314056317 -0.0010935784975687664 -0.0014537923369142744 0.0026181193102489818 0.0026691338419914247 -0.0006373241767287255 -0.0018677615665871165 -0.0015810347242014751 0.0030668851484855013 0.0026155004176226532 -0.0013841306009600241 -0.001688531685088362 0.0030695311012475385
leaf_weight=22 23 45 26 21 36 43 38 40 22 28 48 45 36 22 25 20 23 35 24 22 62 28 23
leaf_count=22 23 45 26 21 36 43 38 40 22 28 48 45 36 22 25 20 23 35 24 22 62 28 23
internal_value=0 0.00177232 -0.000943565 -0.00105794 0.00055976 3.90867e-06 -0.00129843 -0.0011925 -0.000116011 0.000150268 -0.00128691 -0.00132213 -0.00138123 0.00285404 0.0028984 -0.000458371 -0.00160741 -0.00169474 0.0029607 0.00284844 -0.00147168 -0.00155649 0.00306818
internal_weight=0 263 494 472 124 79 376 280 96 54 240 219 174 139 117 42 96 58 92 45 126 64 47
internal_count=757 263 494 472 124 79 376 280 96 54 240 219 174 139 117 42 96 58 92 45 126 64 47
is_linear=0
shrinkage=0.005


Tree=4
num_leaves=16
num_cat=0
split_feature=5 0 0 8 3 3 3 7 7 0 3 3 0 7 8
split_gain=50.1323 13.6609 3.86318 1.28367 1.12257 0.439892 0.356565 0.226728 0.12009 0.0912348 0.0626772 0.0576074 0.050033 0.0179193 0.0113554
threshold=1.0000000180025095e-35 2.5000000000000004 1.5000000000000002 1.0000000180025095e-35 1.0000000180025095e-35 1.5000000000000002 1.5000000000000002 1.0000000180025095e-35 1.0000000180025095e-35 2.5000000000000004 1.0000000180025095e-35 1.5000000000000002 1.5000000000000002 1.0000000180025095e-35 1.0000000180025095e-35
decision_type=2 2 2 2 2 2 2 2 2 2 2 2 2 2 2
left_child=2 11 7 6 8 -6 10 -1 9 -4 -3 12 13 -2 -11
right_child=1 3 4 -5 5 -7 -8 -9 -10 14 -12 -13 -14 -15 -16
leaf_value=-0.00021748876481345207 0.0030532460127558024 0.0003907746821641922 -0.0014573670077968287 0.0015446299543747535 -0.00021340010639948721 -0.0011254563853144645 -0.00017028718159116548 0.00029535937588661911 -0.0010165890215373622 -0.0012407819973063593 0.00071828065173966545 0.0026050287078727375 0.0027683046746712465 0.002886715829372406 -0.0013468953350494648
leaf_weight=66 35 48 74 26 39 20 29 32 41 193 21 22 52 30 29
leaf_count=66 35 48 74 26 39 20 29 32 41 193 21 22 52 30 29
internal_value=0 0.00176346 -0.000938848 0.000556961 -0.00115881 -0.000522572 0.000294926 -5.00281e-05 -0.0012702 -0.00130532 0.00049045 0.00283977 0.00288391 0.00297639 -0.00125464
internal_weight=0 263 494 124 396 59 98 98 337 296 69 139 117 65 222
internal_count=757 263 494 124 396 59 98 98 337 296 69 139 117 65 222
is_linear=0
shrinkage=0.005


Tree=5
num_leaves=10
num_cat=0
split_feature=5 3 7 3 7 3 8 8 3
split_gain=49.6322 1.8905 1.24483 0.74209 0.570521 0.0810753 0.078568 0.0239982 0.0504312
threshold=1.0000000180025095e-35 1.5000000000000002 1.0000000180025095e-35 1.0000000180025095e-35 1.0000000180025095e-35 1.5000000000000002 1.0000000180025095e-35 1.0000000180025095e-35 1.0000000180025095e-35
decision_type=2 2 2 2 2 2 2 2 2
left_child=2 4 3 6 7 -5 -1 8 -2
right_child=1 -3 -4 5 -6 -7 -8 -9 -10
leaf_value=-0.0011106630852445961 0.0017376444519174342 0.00091082048584830084 -0.00035888386678092091 -0.00041522151813274479 0.0024400121308102898 -0.00078611436745394843 -0.0013742905614837523 0.0019598295125696392 0.0019564750004145834
leaf_weight=320 98 53 79 41 49 23 31 27 36
leaf_count=320 98 53 79 41 49 23 31 27 36
internal_value=0 0.00175465 -0.000934153 -0.00104366 0.00196761 -0.000548511 -0.00113395 0.00182384 0.00179643
internal_weight=0 263 494 415 210 64 351 161 134
internal_count=757 263 494 415 210 64 351 161 134
is_linear=0
shrinkage=0.005


Tree=6
num_leaves=28
num_cat=0
split_feature=5 0 1 4 4 9 0 4 7 4 1 1 4 7 4 4 4 4 4 4 1 4 4 4 1 4 4
split_gain=49.1371 13.5162 5.46953 4.26192 3.60135 1.09203 0.923785 0.625009 1.05761 0.414837 0.358141 0.504639 0.680658 0.529551 0.247483 0.132193 0.25796 0.0669113 0.12801 0.0659555 0.0612733 0.259398 0.169573 0.103241 0.0490322 0.0178443 2.73573e-05
threshold=1.0000000180025095e-35 2.5000000000000004 6.5000000000000009 26.268750000000004 23.725000000000005 1.0000000180025095e-35 1.5000000000000002 30.750000000000004 1.0000000180025095e-35 10.508350000000002 32.250000000000007 26.500000000000004 9.4791500000000024 1.0000000180025095e-35 8.0812500000000025 7.910400000000001 13.208350000000001 135.06665000000001 29.850000000000005 20.787500000000005 20.500000000000004 7.7979000000000012 7.6875000000000009 8.0812500000000025 18.500000000000004 14.456250000000002 65.800000000000011
decision_type=2 2 2 2 2 2 2 2 2 2 2 2 2 2 2 2 2 2 2 2 2 2 2 2 2 2 2
left_child=2 17 -1 10 5 14 7 -5 -9 -7 11 13 -13 20 -3 -12 -17 18 19 -2 24 22 -22 -23 -4 -25 -20
right_child=1 4 3 6 -6 9 -8 8 -10 -11 15 12 -14 -15 -16 16 -18 -19 26 -21 21 23 -24 25 -26 -27 -28
leaf_value=0.0015074362809007818 0.0028665986955165863 0.0019268220527605576 -0.001436251966903607 0.00061420896152655292 -0.0012398402846377828 0.00012358623556792735 -0.00095284602858803486 -0.00084620818057480976 0.00050851160287857054 0.00097386442697965179 -0.0018473214516416191 -0.00025757558111633573 -0.0014184272354063781 -0.00073536938236605737 0.0011679713853767939 -0.0011931812331864708 -0.0018471467912197113 0.0025564183081899371 0.003034183204174042 0.0025350480477015175 -0.0014650405141023489 -0.0018453569601221784 -0.00085265479981899261 -0.001394380574876612 -0.0011010424718260765 -0.0016007371619343757 0.0030272490508628613
leaf_weight=22 30 22 24 30 23 32 33 34 25 26 32 28 23 31 21 38 25 21 25 30 26 41 20 22 20 20 33
leaf_count=22 30 22 24 30 23 32 33 34 25 26 32 28 23 31 21 38 25 21 25 30 26 41 20 22 20 20 33
internal_value=0 0.00174587 -0.000929483 -0.00104307 0.000545777 0.000952403 -0.000238327 2.66065e-05 -0.000272174 0.000504745 -0.00132358 -0.00122595 -0.000781097 -0.00133717 0.00155622 -0.00158562 -0.00145269 0.00281646 0.00286274 0.00270082 -0.001445 -0.00149996 -0.00119879 -0.00166688 -0.00128388 -0.00149265 0.00303024
internal_weight=0 263 494 472 124 101 122 89 59 58 350 255 51 204 43 95 63 139 118 60 173 129 46 83 44 42 58
internal_count=757 263 494 472 124 101 122 89 59 58 350 255 51 204 43 95 63 139 118 60 173 129 46 83 44 42 58
is_linear=0
shrinkage=0.005


Tree=7
num_leaves=26
num_cat=0
split_feature=5 1 2 7 1 1 1 7 1 1 1 2 1 2 1 1 1 1 1 2 1 1 1 2 1
split_gain=48.647 5.41497 2.36584 1.29193 0.675023 0.696132 0.820096 0.494812 0.431842 0.675644 0.558532 0.346982 0.222365 0.462316 0.48955 0.128312 0.106373 0.10468 0.102829 0.101732 0.0663342 0.0614718 0.0464423 0.0436636 0.0418902
threshold=1.0000000180025095e-35 6.5000000000000009 1.5000000000000002 1.0000000180025095e-35 32.250000000000007 36.250000000000007 47.500000000000007 1.0000000180025095e-35 26.500000000000004 32.250000000000007 30.500000000000004 1.0000000180025095e-35 17.500000000000004 1.0000000180025095e-35 25.500000000000004 25.500000000000004 52.500000000000007 23.250000000000004 35.500000000000007 1.0000000180025095e-35 19.500000000000004 22.500000000000004 39.500000000000007 1.0000000180025095e-35 46.500000000000007
decision_type=2 2 2 2 2 2 2 2 2 2 2 2 2 2 2 2 2 2 2 2 2 2 2 2 2
left_child=1 -1 4 8 7 -6 -7 12 17 10 -10 15 -2 14 21 -5 18 19 -11 20 -3 -14 -20 -19 -24
right_child=2 3 -4 11 5 6 -8 -9 9 16 -12 -13 13 -15 -16 -17 -18 23 22 -21 -22 -23 24 -25 -26
leaf_value=0.0014998991110108115 0.0020488373935222625 -0.0013765747705474496 0.00041553528606891636 -0.00083930847399375026 0.0030222296973933345 0.0014811453456059099 0.0027718114778399468 0.0022278915224848567 -0.0008818577738796793 -0.0014085758056329644 0.00013732504844665529 0.00012125534564256668 0.0016276542700472334 0.00096344676709944209 0.0023356124049141295 -0.00035576268382694415 -0.0014726167688002953 -0.0011684503328676025 -0.00085052021741867064 -0.0011404124895731608 -0.0016937477974330679 0.0012697908601590566 -0.0012266488280147315 -0.0014110017665054486 -0.00094322468746792188
leaf_weight=22 20 32 30 34 23 32 20 37 41 23 20 20 21 31 21 23 26 96 25 21 34 28 32 23 22
leaf_count=22 20 32 30 34 23 32 20 37 41 23 20 20 21 31 21 23 26 96 25 21 34 28 32 23 22
internal_value=0 -0.000924835 0.00173714 -0.00103785 0.00190731 0.00229792 0.00197756 0.00172189 -0.00115335 -0.00098075 -0.000547699 -0.000445376 0.00156716 0.00147178 0.0016969 -0.000644194 -0.00118712 -0.0013117 -0.00111435 -0.00144352 -0.00153997 0.00142316 -0.00102869 -0.00121533 -0.00111118
internal_weight=0 494 263 472 233 75 52 158 395 189 61 77 121 101 70 57 128 206 102 87 66 49 79 119 54
internal_count=757 494 263 472 233 75 52 158 395 189 61 77 121 101 70 57 128 206 102 87 66 49 79 119 54
is_linear=0
shrinkage=0.005


Tree=8
num_leaves=26
num_cat=0
split_feature=5 0 1 4 4 9 0 4 9 4 1 1 4 9 8 4 4 4 4 1 4 4 4 4 4
split_gain=48.1617 13.3481 5.36095 4.20926 3.55283 1.08044 0.913835 0.621192 0.868296 0.411417 0.354156 0.493503 0.672235 0.25982 0.259665 0.245401 0.13132 0.255257 0.0847217 0.368942 0.0658826 0.126142 0.0648918 0.0583172 4.29036e-05
threshold=1.0000000180025095e-35 2.5000000000000004 6.5000000000000009 26.268750000000004 23.725000000000005 1.0000000180025095e-35 1.5000000000000002 30.750000000000004 1.0000000180025095e-35 10.508350000000002 32.250000000000007 26.500000000000004 9.4791500000000024 1.0000000180025095e-35 1.0000000180025095e-35 8.0812500000000025 7.910400000000001 13.208350000000001 7.7979000000000012 20.500000000000004 135.06665000000001 29.850000000000005 20.787500000000005 8.0812500000000025 65.800000000000011
decision_type=2 2 2 2 2 2 2 2 2 2 2 2 2 2 2 2 2 2 2 2 2 2 2 2 2
left_child=2 20 -1 10 5 15 7 -5 -9 -7 11 13 -13 14 -4 -3 -12 -18 -15 -20 21 22 -2 -21 -23
right_child=1 4 3 6 -6 9 -8 8 -10 -11 16 12 -14 18 -16 -17 17 -19 19 23 -22 24 -24 -25 -26
leaf_value=0.0014923996275121516 0.0028419920355081557 0.0019093697856773029 -0.00072834865700814036 0.00061639855305353796 -0.0012377020004002944 0.00011486462317407131 -0.00094357021830298693 0.00041608397204142346 -0.00080567725680091168 0.00096163086593151095 -0.0018328514415770769 -0.00025416219873087751 -0.0014078085578006247 -0.0012424470342340924 -0.0014210904762148857 0.0011537189852623712 -0.0011813790311938838 -0.001831908941268921 -0.0010579631151631476 -0.0018296444788575173 0.0025343318496431622 0.0030095018386840822 0.0025131258914868038 -0.0015501746705600195 0.0030008181568348048
leaf_weight=22 30 22 31 30 23 32 33 26 33 26 32 28 23 42 24 21 38 25 32 40 21 25 30 35 33
leaf_count=22 30 22 31 30 23 32 33 26 33 26 32 28 23 42 24 21 38 25 32 40 21 25 30 35 33
internal_value=0 0.00172846 -0.000920211 -0.00103266 0.000535848 0.000939726 -0.00023291 3.05932e-05 -0.000267274 0.000494449 -0.00131143 -0.00121436 -0.000774434 -0.00132434 -0.00103064 0.00154033 -0.00157201 -0.00143953 -0.00143275 -0.00150745 0.00279237 0.00283829 0.00267756 -0.00169923 0.00300456
internal_weight=0 263 494 472 124 101 122 89 59 58 350 255 51 204 55 43 95 63 149 107 139 118 60 75 58
internal_count=757 263 494 472 124 101 122 89 59 58 350 255 51 204 55 43 95 63 149 107 139 118 60 75 58
is_linear=0
shrinkage=0.005


Tree=9
num_leaves=15
num_cat=0
split_feature=5 2 7 3 2 7 3 2 3 8 2 8 2 2
split_gain=47.6813 2.3184 1.19253 0.703321 1.6372 0.624571 0.499014 0.241044 0.201028 0.0901658 0.148828 0.0777097 0.00358461 0.00202084
threshold=1.0000000180025095e-35 1.5000000000000002 1.0000000180025095e-35 1.0000000180025095e-35 2.5000000000000004 1.0000000180025095e-35 1.5000000000000002 1.0000000180025095e-35 1.0000000180025095e-35 1.0000000180025095e-35 1.0000000180025095e-35 1.0000000180025095e-35 1.0000000180025095e-35 1.0000000180025095e-35
decision_type=2 2 2 2 2 2 2 2 2 2 2 2 2 2
left_child=2 5 3 11 -5 6 8 -4 9 10 -2 12 -1 -7
right_child=1 -3 7 4 -6 13 -8 -9 -10 -11 -12 -13 -14 -15
leaf_value=-0.0010942139368558274 0.0018373146724133267 0.00041152678926785783 -0.00051335669675115815 3.8035171372549876e-05 -0.0016457054018974304 0.0023849419504404067 0.0011456710254323893 0.00012181480228900911 0.0022207870839103575 0.0020356106460094454 0.001414135338798646 -0.0013497157635227327 -0.0010456196625124325 0.0023226908933032643
leaf_weight=276 63 30 59 42 22 32 29 20 31 25 31 31 44 22
leaf_count=276 63 30 59 42 22 32 29 20 31 25 31 31 44 22
internal_value=0 0.00171981 -0.00091561 -0.00102279 -0.000540751 0.00188826 0.00174608 -0.000352554 0.00186216 0.00176873 0.00169776 -0.00111069 -0.00108753 0.00235958
internal_weight=0 263 494 415 64 233 179 79 150 119 94 351 320 54
internal_count=757 263 494 415 64 233 179 79 150 119 94 351 320 54
is_linear=0
shrinkage=0.005


Tree=10
num_leaves=25
num_cat=0
split_feature=5 0 1 0 9 1 1 7 1 1 1 1 1 1 9 1 1 0 1 1 1 1 9 0
split_gain=47.2057 13.2033 5.30104 4.08527 2.57971 0.479557 0.575766 0.351576 0.345377 0.939665 0.208093 0.100729 0.0584197 0.0541575 0.126177 0.0971593 0.0494727 0.0445783 0.0457496 0.0402246 0.0335744 0.0495661 4.77661e-05 2.11359e-05
threshold=1.0000000180025095e-35 2.5000000000000004 6.5000000000000009 1.5000000000000002 1.0000000180025095e-35 32.250000000000007 28.250000000000004 1.0000000180025095e-35 38.500000000000007 24.250000000000004 25.500000000000004 24.250000000000004 19.500000000000004 27.500000000000004 1.0000000180025095e-35 43.500000000000007 50.500000000000007 2.5000000000000004 38.500000000000007 17.500000000000004 23.250000000000004 20.500000000000004 1.0000000180025095e-35 1.5000000000000002
decision_type=2 2 2 2 2 2 2 2 2 2 2 2 2 2 2 2 2 2 2 2 2 2 2 2
left_child=2 13 -1 8 -3 6 7 11 9 -4 12 19 -6 14 -2 23 -10 -7 -19 -5 21 -21 -22 -15
right_child=1 4 3 5 10 17 -8 -9 16 -11 -12 -13 -14 15 -16 -17 -18 18 -20 20 22 -23 -24 -25
leaf_value=0.0014880594204772601 0.0029803589135408404 0.0014806360701719919 -0.00052223686415415538 -0.0011813192976557691 -3.6754142493009566e-05 -0.0014297443863592648 -0.00059796293079853054 -0.00075800524093210702 -0.00027870041402903469 0.00079780520073005135 0.00031774602059660292 -0.0010989006227109491 -0.00037884571804450108 0.0029786368431868378 0.0024939621202647688 0.0026120104889074962 -0.00062229887396097181 -0.0018232969810133396 -0.0015362323479993004 -0.0013598739681765437 -0.0013475648916902996 -0.0016452735045860553 -0.0013388399299113982 0.0029850169777870181
leaf_weight=22 20 45 26 23 24 38 40 32 22 28 29 41 26 27 40 27 20 23 35 32 21 29 62 25
leaf_count=22 20 45 26 23 24 38 40 32 22 28 29 41 26 27 40 27 20 23 35 32 21 29 62 25
internal_value=0 0.00171122 -0.000911032 -0.00102285 0.00052509 -0.0012579 -0.00115334 -0.00124591 -0.00010226 0.000162229 -1.92083e-05 -0.00132097 -0.000214642 0.00276934 0.00265609 0.00285535 -0.000442319 -0.00156286 -0.00165007 -0.00137549 -0.0014065 -0.00149556 -0.00134105 0.0029817
internal_weight=0 263 494 472 124 376 280 240 96 54 79 208 50 139 60 79 42 96 58 167 144 61 83 52
internal_count=757 263 494 472 124 376 280 240 96 54 79 208 50 139 60 79 42 96 58 167 144 61 83 52
is_linear=0
shrinkage=0.005


Tree=11
num_leaves=25
num_cat=0
split_feature=5 0 1 0 9 1 1 1 1 1 1 1 9 8 1 1 9 1 1 0 1 1 1 0
split_gain=46.7348 13.0716 5.24816 4.04452 2.55397 0.474773 0.570023 0.341932 0.930292 0.206017 0.118487 0.11422 0.13877 0.137238 0.057837 0.0536173 0.124918 0.0961901 0.0489792 0.0441337 0.0452932 0.0370868 0.0320893 2.09249e-05
threshold=1.0000000180025095e-35 2.5000000000000004 6.5000000000000009 1.5000000000000002 1.0000000180025095e-35 32.250000000000007 28.250000000000004 38.500000000000007 24.250000000000004 25.500000000000004 16.500000000000004 24.250000000000004 1.0000000180025095e-35 1.0000000180025095e-35 19.500000000000004 27.500000000000004 1.0000000180025095e-35 43.500000000000007 50.500000000000007 2.5000000000000004 38.500000000000007 23.250000000000004 20.500000000000004 1.5000000000000002
decision_type=2 2 2 2 2 2 2 2 2 2 2 2 2 2 2 2 2 2 2 2 2 2 2 2
left_child=2 15 -1 7 -3 6 10 8 -4 14 -5 12 13 -12 -6 16 -2 23 -9 -7 -21 22 -14 -17
right_child=1 4 3 5 9 19 -8 18 -10 -11 11 -13 21 -15 -16 17 -18 -19 -20 20 -22 -23 -24 -25
leaf_value=0.0014806191284548154 0.0029654570966958999 0.001473232885201772 -0.00051962569355964658 -0.00088090885962758745 -3.657036150495211e-05 -0.0014225956483891137 -0.00059497313201427467 -0.00027730689807371658 0.0007938161971313614 0.00031615728448177209 -0.00084693686962127685 -0.0010495415296819476 -0.0014049919404917294 -0.0013821091664874036 -0.00037695148243353918 0.0029637436513547544 0.0024814922995865345 0.0025989504820770688 -0.00061918739974498743 -0.0018141805024250693 -0.0015285511910915375 -0.001332145732256674 -0.0016306805663875172 0.0029700918674468997
leaf_weight=22 20 45 26 21 24 38 40 22 28 29 25 45 36 23 26 27 40 27 20 23 35 62 28 25
leaf_count=22 20 45 26 21 24 38 40 22 28 29 25 45 36 23 26 27 40 27 20 23 35 62 28 25
internal_value=0 0.00170266 -0.000906477 -0.00101774 0.000522465 -0.00125161 -0.00114758 -0.000101749 0.000161418 -1.91122e-05 -0.00123968 -0.00127408 -0.00133215 -0.00110337 -0.000213569 0.0027555 0.00264281 0.00284108 -0.000440107 -0.00155504 -0.00164182 -0.0014193 -0.00150373 0.0029668
internal_weight=0 263 494 472 124 376 280 96 54 79 240 219 174 48 50 139 60 79 42 96 58 126 64 52
internal_count=757 263 494 472 124 376 280 96 54 79 240 219 174 48 50 139 60 79 42 96 58 126 64 52
is_linear=0
shrinkage=0.005


Tree=12
num_leaves=28
num_cat=0
split_feature=5 1 4 4 4 4 3 4 4 4 3 1 1 4 7 4 4 4 4 4 1 4 4 4 1 4 7
split_gain=46.2686 5.19581 4.09154 3.44542 1.35292 1.54505 1.22004 0.640073 1.48134 1.45912 0.576137 0.344199 0.479887 0.665188 0.501651 0.308043 0.309805 0.179416 0.129883 0.254819 0.0590574 0.254542 0.168833 0.101385 0.0494882 0.0179377 2.27311e-05
threshold=1.0000000180025095e-35 6.5000000000000009 26.268750000000004 47.000000000000007 27.825000000000003 25.527100000000001 1.0000000180025095e-35 10.316650000000001 13.931250000000002 7.8916500000000012 1.0000000180025095e-35 32.250000000000007 26.500000000000004 9.4791500000000024 1.0000000180025095e-35 52.277100000000011 30.035400000000003 18.375000000000004 7.910400000000001 13.208350000000001 20.500000000000004 7.7979000000000012 7.6875000000000009 8.0812500000000025 18.500000000000004 14.456250000000002 1.0000000180025095e-35
decision_type=2 2 2 2 2 2 2 2 2 2 2 2 2 2 2 2 2 2 2 2 2 2 2 2 2 2 2
left_child=1 -1 11 4 5 7 15 9 -9 -2 26 12 14 -14 20 16 -4 -10 -13 -20 24 22 -22 -23 -3 -25 -5
right_child=3 2 6 10 -6 -7 -8 8 17 -11 -12 18 13 -15 -16 -17 -18 -19 19 -21 21 23 -24 25 -26 -27 -28
leaf_value=0.0014732159945097837 0.0015768480252835058 -0.00140009597564737 0.00023878304431071648 0.002951196146508058 0.00025548658967018125 0.0027371950379826804 -0.00095359235237806278 0.0023938234632506091 0.00079766800177508384 -0.00010683948343450373 0.0020201966739617863 -0.0018037933763116599 -0.00024044425359794072 -0.0013880276226479074 -0.00071451317879461481 0.0004842590365339728 -0.00055785557498102601 0.0013640555297886883 -0.0011547002823729265 -0.0018046719968318938 -0.0014264853871785678 -0.0018013693174210991 -0.00081543588638305657 -0.001353322057561441 -0.0010633311942219734 -0.0015602176561951636 0.0029442401424698205
leaf_weight=22 31 24 26 24 25 22 39 34 29 22 26 32 28 23 31 34 23 27 38 25 26 41 20 22 20 20 23
leaf_count=22 31 24 26 24 25 22 39 34 29 22 26 32 28 23 31 34 23 27 38 25 26 41 20 22 20 20 23
internal_value=0 -0.000901944 -0.00101265 0.00169415 0.00133942 0.00150365 -0.000224161 0.00131387 0.00157058 0.000877959 0.00261742 -0.0012875 -0.00119179 -0.000757982 -0.00130024 0.000118584 -0.000135149 0.00107075 -0.00154439 -0.00141263 -0.0014052 -0.00145915 -0.00116081 -0.0016245 -0.00124702 -0.00145184 0.00294779
internal_weight=0 494 472 263 190 165 122 143 90 53 73 350 255 51 204 83 49 56 95 63 173 129 46 83 44 42 47
internal_count=757 494 472 263 190 165 122 143 90 53 73 350 255 51 204 83 49 56 95 63 173 129 46 83 44 42 47
is_linear=0
shrinkage=0.005


Tree=13
num_leaves=10
num_cat=0
split_feature=5 3 7 3 7 3 8 8 3
split_gain=45.8071 1.78888 1.1548 0.666579 0.524319 0.0768959 0.0761941 0.0244158 0.05063
threshold=1.0000000180025095e-35 1.5000000000000002 1.0000000180025095e-35 1.0000000180025095e-35 1.0000000180025095e-35 1.5000000000000002 1.0000000180025095e-35 1.0000000180025095e-35 1.0000000180025095e-35
decision_type=2 2 2 2 2 2 2 2 2
left_child=2 4 3 6 7 -5 -1 8 -2
right_child=1 -3 -4 5 -6 -7 -8 -9 -10
leaf_value=-0.001065548206679523 0.0016684634527381586 0.00086484218824584534 -0.00034335637583008299 -0.00040381745594303783 0.0023457078544460996 -0.00076502418388491088 -0.0013251623319041346 0.0018921797032709477 0.0018877248590191207
leaf_weight=320 98 53 79 41 49 23 31 27 36
leaf_count=320 98 53 79 41 49 23 31 27 36
internal_value=0 0.00168568 -0.000897435 -0.00100291 0.00189284 -0.000533626 -0.00108848 0.00175501 0.00172737
internal_weight=0 263 494 415 210 64 351 161 134
internal_count=757 263 494 415 210 64 351 161 134
is_linear=0
shrinkage=0.005


Tree=14
num_leaves=25
num_cat=0
split_feature=5 0 1 0 2 3 1 1 1 1 1 1 8 1 1 1 1 0 1 1 2 1 1 0
split_gain=45.3502 12.8563 5.13527 3.96495 1.30572 0.532577 0.465653 0.559148 0.3383 0.919256 0.116159 0.112608 0.0875975 0.0522243 0.0977156 0.0951872 0.0482387 0.0434568 0.0450583 0.0368003 0.0371017 0.0320334 0.00245469 4.9818e-05
threshold=1.0000000180025095e-35 2.5000000000000004 6.5000000000000009 1.5000000000000002 1.0000000180025095e-35 1.0000000180025095e-35 32.250000000000007 28.250000000000004 38.500000000000007 24.250000000000004 16.500000000000004 24.250000000000004 1.0000000180025095e-35 27.500000000000004 23.250000000000004 43.500000000000007 50.500000000000007 2.5000000000000004 38.500000000000007 20.500000000000004 1.0000000180025095e-35 23.250000000000004 22.500000000000004 1.5000000000000002
decision_type=2 2 2 2 2 2 2 2 2 2 2 2 2 2 2 2 2 2 2 2 2 2 2 2
left_child=2 13 -1 8 12 -6 7 10 9 -4 -5 19 22 14 -2 23 -10 -8 -19 -12 21 -21 -3 -15
right_child=1 4 3 6 5 -7 17 -9 16 -11 11 -13 -14 15 -16 -17 -18 18 -20 20 -22 -23 -24 -25
leaf_value=0.0014683341641317715 0.0027926835959607905 0.00089712900774819519 -0.00051129788733445685 -0.00086752756010918396 0.00054759803143414581 -0.00045080159955164962 -0.0014036419830824199 -0.00058422954753041274 -0.00027106325057419864 0.00079432981887034 -0.0011813845783472062 -0.0010338688095410666 0.0012504390403628349 0.0029261906169078967 0.0023870922293927933 0.0025649772915575242 -0.00061034934967756267 -0.0017930918284084485 -0.0015082041919231414 -0.0014596026192108791 -0.0015528354570269584 -0.0012692654913380034 0.00082505191365877791 0.0029359858036041258
leaf_weight=22 33 21 26 21 22 34 38 40 22 28 40 45 20 27 27 27 20 23 35 30 20 84 27 25
leaf_count=22 33 21 26 21 22 34 38 40 22 28 40 45 20 27 27 27 20 23 35 30 20 84 27 25
internal_value=0 0.00167725 -0.000892947 -0.00100301 0.000506813 -5.85732e-05 -0.00123457 -0.00113154 -9.60718e-05 0.000165694 -0.00122275 -0.00125682 0.000972425 0.00272138 0.00261017 0.00280584 -0.000432628 -0.00153507 -0.00162118 -0.00131447 -0.0013542 -0.00131935 0.000856586 0.0029309
internal_weight=0 263 494 472 124 56 376 280 96 54 240 219 68 139 60 79 42 96 58 174 134 114 48 52
internal_count=757 263 494 472 124 56 376 280 96 54 240 219 68 139 60 79 42 96 58 174 134 114 48 52
is_linear=0
shrinkage=0.005


Tree=15
num_leaves=25
num_cat=0
split_feature=6 0 1 0 9 2 1 1 7 1 1 1 1 9 2 1 1 0 1 1 1 1 0 9
split_gain=44.8978 12.7281 5.08404 3.9254 2.50652 0.906245 0.461008 0.55357 0.337779 0.334926 0.910086 0.0971817 0.0517034 0.121629 0.0965638 0.0942376 0.0477575 0.0430234 0.0446089 0.0377864 0.0331498 0.0474896 4.93215e-05 4.08389e-05
threshold=1.0000000180025095e-35 2.5000000000000004 6.5000000000000009 1.5000000000000002 1.0000000180025095e-35 1.0000000180025095e-35 32.250000000000007 28.250000000000004 1.0000000180025095e-35 38.500000000000007 24.250000000000004 24.250000000000004 27.500000000000004 1.0000000180025095e-35 1.0000000180025095e-35 43.500000000000007 50.500000000000007 2.5000000000000004 38.500000000000007 17.500000000000004 23.250000000000004 20.500000000000004 1.5000000000000002 1.0000000180025095e-35
decision_type=2 2 2 2 2 2 2 2 2 2 2 2 2 2 2 2 2 2 2 2 2 2 2 2
left_child=1 12 -2 9 -3 -6 7 8 11 10 -4 19 13 -1 -15 22 -11 -8 -19 -5 21 -21 -14 -22
right_child=2 4 3 6 5 -7 17 -9 -10 16 -12 -13 15 14 -16 -17 -18 18 -20 20 23 -23 -24 -25
leaf_value=0.0029154836237430572 0.0014609924229708586 0.0014461731182204352 -0.00050874139827031359 -0.001155573369368263 0.00055303462263610629 -0.00052224343252736476 -0.0013966237714416103 -0.00058130840957164765 -0.00073840802069753415 -0.00026970790868455718 0.00079035818576812745 -0.0010720921980171669 0.0029115596413612365 0.002683600276708603 0.0021922659650444984 0.0025521524360886329 -0.00060729759186506273 -0.0017841263568919639 -0.001500663174050195 -0.0013295042747631669 -0.0013148118413629987 -0.0016088616899375258 0.0029213058948516848 -0.0013067443067989043
leaf_weight=20 22 45 26 23 36 43 38 40 32 22 28 41 27 20 20 27 20 23 35 32 21 29 25 62
leaf_count=20 22 45 26 23 36 43 38 40 32 22 28 41 27 20 20 27 20 23 35 32 21 29 25 62
internal_value=0 0.00166886 -0.000888483 -0.000997992 0.000504279 -3.22433e-05 -0.00122839 -0.00112588 -0.00121664 -9.55914e-05 0.000164866 -0.00129021 0.00270777 0.00259712 0.00243793 0.00279181 -0.000430465 -0.00152739 -0.00161307 -0.00134376 -0.00137382 -0.00146231 0.00291625 -0.00130879
internal_weight=0 263 494 472 124 79 376 280 240 96 54 208 139 60 40 79 42 96 58 167 144 61 52 83
internal_count=757 263 494 472 124 79 376 280 240 96 54 208 139 60 40 79 42 96 58 167 144 61 52 83
is_linear=0
shrinkage=0.005


Tree=16
num_leaves=27
num_cat=0
split_feature=5 4 4 3 2 4 4 2 4 4 3 4 4 4 4 4 7 4 4 4 4 4 4 4 4 7
split_gain=44.4499 3.69807 3.33967 2.17239 1.93936 1.3237 1.49953 0.998722 1.11586 0.741516 0.561002 0.390939 0.885993 0.32299 0.225984 0.209532 0.201381 0.135973 0.176836 0.126681 0.289035 0.225026 0.111263 0.099022 0.0275173 4.71506e-05
threshold=1.0000000180025095e-35 26.268750000000004 47.000000000000007 1.0000000180025095e-35 2.5000000000000004 27.825000000000003 25.527100000000001 1.0000000180025095e-35 10.316650000000001 7.7625000000000011 1.0000000180025095e-35 52.277100000000011 30.750000000000004 72.391650000000013 16.050000000000004 13.208350000000001 1.0000000180025095e-35 13.208350000000001 7.7354000000000012 7.7979000000000012 7.910400000000001 8.3312500000000025 22.441650000000003 7.2396000000000003 10.316650000000001 1.0000000180025095e-35
decision_type=2 2 2 2 2 2 2 2 2 2 2 2 2 2 2 2 2 2 2 2 2 2 2 2 2 2
left_child=1 3 5 16 11 6 7 8 9 -2 25 12 -3 -13 -9 -10 17 18 23 -20 -21 -22 -19 -1 -23 -4
right_child=2 4 10 -5 -6 -7 -8 14 15 -11 -12 13 -14 -15 -16 -17 -18 22 19 20 21 24 -24 -25 -26 -27
leaf_value=-0.0013456403551732794 0.0016879824581353562 0.00033760811476146469 0.0029004184653361638 0.00014174129565556844 -0.0016064680591225625 0.00023911076188087464 0.0026889640431512485 0.00028673864901065829 0.002397394792309829 0.00044399251341819759 0.0019801851132741342 0.00089698795229196547 -0.0008885164215014531 9.1738154490788782e-05 0.00098796941615917071 0.0017273220792412758 -0.00092593159813147323 -0.0017836219608783721 -0.000913945388268022 -0.0016440675573216547 -0.00087211570569447109 -0.0014332145186407225 -0.0012832792177796366 -0.0017823252152828946 -0.0012335737744967143 0.0028904001868289447
leaf_weight=34 23 34 24 30 20 25 22 20 28 25 26 20 26 33 27 20 39 25 34 36 49 28 20 21 45 23
leaf_count=34 23 34 24 30 20 25 22 20 28 25 26 20 26 33 27 20 39 25 34 36 49 28 20 21 45 23
internal_value=0 -0.00088404 0.00166052 -0.00114662 -0.000171316 0.00131127 0.00147372 0.00128676 0.00157913 0.00104007 0.00256951 8.26935e-05 -0.000193713 0.000395606 0.000689573 0.0021182 -0.00126339 -0.00130847 -0.00126241 -0.00119081 -0.00125039 -0.00113422 -0.00156125 -0.00151237 -0.00131015 0.00289552
internal_weight=0 494 263 361 133 190 165 143 96 48 73 113 60 53 47 48 331 292 247 192 158 122 45 55 73 47
internal_count=757 494 263 361 133 190 165 143 96 48 73 113 60 53 47 48 331 292 247 192 158 122 45 55 73 47
is_linear=0
shrinkage=0.005


Tree=17
num_leaves=29
num_cat=0
split_feature=6 1 4 4 4 4 3 2 4 1 4 3 1 1 4 7 4 4 4 2 4 4 4 1 4 4 7 4
split_gain=44.0065 5.02534 3.9347 3.30636 1.3105 1.48458 1.19494 0.98876 1.10473 0.774574 0.734119 0.555406 0.334798 0.466892 0.656526 0.484269 0.30151 0.303809 0.22373 0.139572 0.127862 0.254144 0.0515546 0.186703 0.0957294 0.0827411 4.66803e-05 3.23246e-06
threshold=1.0000000180025095e-35 6.5000000000000009 26.268750000000004 47.000000000000007 27.825000000000003 25.527100000000001 1.0000000180025095e-35 1.0000000180025095e-35 10.316650000000001 26.500000000000004 7.7625000000000011 1.0000000180025095e-35 32.250000000000007 26.500000000000004 9.4791500000000024 1.0000000180025095e-35 52.277100000000011 30.035400000000003 16.050000000000004 1.0000000180025095e-35 7.910400000000001 13.208350000000001 7.7979000000000012 19.500000000000004 7.7354000000000012 8.0812500000000025 1.0000000180025095e-35 7.910400000000001
decision_type=2 2 2 2 2 2 2 2 2 2 2 2 2 2 2 2 2 2 2 2 2 2 2 2 2 2 2 2
left_child=3 -2 12 4 5 7 16 8 10 -10 -1 26 13 15 -15 19 17 -4 -9 22 -14 -22 24 -24 -3 27 -5 -25
right_child=1 2 6 11 -6 -7 -8 18 9 -11 -12 -13 20 14 -16 -17 -18 -19 -20 -21 21 -23 23 25 -26 -27 -28 -29
leaf_value=0.0016795425181803498 0.0014562510699033737 -0.0014757726364063495 0.00024320471172149365 0.002885916369656722 0.00023791520595550536 0.0026755192469466818 -0.00093715411348220632 0.0002853049710392952 0.0014454103034475577 0.0027168276727199555 0.00044177255034446715 0.001970284185730494 -0.001768760234117508 -0.00022158042660781315 -0.0013616674749747568 -0.00069511315514964435 0.00048571271931423861 -0.00054568827800128769 0.00098302956532548983 -0.0010434816667327176 -0.0011230641642683431 -0.0017721741378307343 -0.0011032736165957017 -0.0017668953019639719 -0.0010373846665024757 -0.0014189155133707183 0.0028759481855060742 -0.0017696437761187554
leaf_weight=23 22 33 26 24 25 22 39 20 23 25 25 26 32 28 23 31 34 23 27 27 38 25 22 23 20 28 23 20
leaf_count=23 22 33 26 24 25 22 39 20 23 25 25 26 32 28 23 31 34 23 27 27 38 25 22 23 20 28 23 20
internal_value=0 -0.00087962 -0.000988495 0.00165221 0.00130472 0.00146635 -0.000215265 0.00128033 0.00157124 0.00210761 0.00103487 0.00255666 -0.00125802 -0.00116363 -0.000735737 -0.00127061 0.000123936 -0.000127092 0.000686125 -0.00137373 -0.00151138 -0.00138065 -0.0014348 -0.00150573 -0.00131034 -0.00163044 0.00288104 -0.00176817
internal_weight=0 494 472 263 190 165 122 143 96 48 48 73 350 255 51 204 83 49 47 173 95 63 146 93 53 71 47 43
internal_count=757 494 472 263 190 165 122 143 96 48 48 73 350 255 51 204 83 49 47 173 95 63 146 93 53 71 47 43
is_linear=0
shrinkage=0.005


Tree=18
num_leaves=29
num_cat=0
split_feature=0 4 3 1 9 1 1 1 4 1 4 1 8 1 1 4 4 4 4 1 4 1 9 1 4 4 4 4
split_gain=15.5371 4.89628 4.28289 2.45652 1.76143 1.63585 0.891251 0.753145 0.71635 0.714757 0.586838 0.506188 0.538588 0.456227 0.867997 0.539346 0.464518 0.306461 0.420546 0.590328 0.564968 0.196149 0.15928 0.224542 0.601243 0.150485 0.107581 0.0170361
threshold=2.5000000000000004 52.277100000000011 1.0000000180025095e-35 6.5000000000000009 1.0000000180025095e-35 24.250000000000004 43.500000000000007 29.500000000000004 11.750000000000002 45.250000000000007 15.372900000000001 23.250000000000004 1.0000000180025095e-35 39.500000000000007 25.500000000000004 7.7979000000000012 7.910400000000001 7.910400000000001 17.600000000000005 20.500000000000004 8.0812500000000025 32.250000000000007 1.0000000180025095e-35 31.500000000000004 25.527100000000001 107.66250000000001 7.5083000000000011 10.316650000000001
decision_type=2 2 2 2 2 2 2 2 2 2 2 2 2 2 2 2 2 2 2 2 2 2 2 2 2 2 2 2
left_child=1 2 8 -2 10 -4 7 25 -1 22 11 -5 -13 14 15 26 -16 -17 19 -19 -21 27 -10 24 -24 -3 -6 -18
right_child=3 6 5 4 13 -7 -8 -9 9 -11 -12 12 -14 -15 16 17 21 18 -20 20 -22 -23 23 -25 -26 -27 -28 -29
leaf_value=-0.00062923264322858874 0.0008227179668567798 0.0017910060763359071 0.0027510502460328019 0.00031196966022253034 -0.00083738168080647781 0.00077526614069938664 0.00093054634909476002 0.0024951274386223626 0.00076385936953804706 -0.00043655886820384435 0.00051196919187255531 -0.0010632929624989629 -0.00016580896292413985 -0.0014957627744385691 -0.0010306425851124984 -0.0017698395835316699 6.6309237763995211e-05 -0.0002240584519776431 -0.0015638674133353764 -0.0017910004610365087 -0.00064444424850600103 -0.00062738864904358276 -0.0004818406701087952 0.00059346425864431596 0.00058496143668890005 0.0012306001069753067 -0.00032498668134212495 -0.00013759303838014602
leaf_weight=33 27 25 22 20 21 20 31 34 22 35 23 32 35 33 26 23 21 22 36 22 21 21 25 36 28 23 20 20
leaf_count=33 27 25 22 20 21 20 31 34 22 35 23 32 35 33 26 23 21 22 36 22 21 21 25 36 28 23 20 20
internal_value=0 0.000806129 0.000373243 -0.000636518 -0.000736011 0.0018102 0.00165275 0.00192577 3.60798e-05 0.000186459 -0.000198309 -0.000386084 -0.000594458 -0.000942819 -0.000870696 -0.00108458 -0.000469673 -0.00124895 -0.00113034 -0.000890225 -0.00123105 -0.000234428 0.000382906 0.000288737 8.17529e-05 0.00152248 -0.000587433 -3.31553e-05
internal_weight=0 334 221 423 396 42 113 82 179 146 110 87 67 286 253 165 88 124 101 65 43 62 111 89 53 48 41 41
internal_count=757 334 221 423 396 42 113 82 179 146 110 87 67 286 253 165 88 124 101 65 43 62 111 89 53 48 41 41
is_linear=0
shrinkage=0.005


Tree=19
num_leaves=24
num_cat=0
split_feature=5 0 1 0 2 3 1 1 1 1 1 1 1 1 1 1 0 1 1 1 1 1 0
split_gain=43.4444 12.3596 4.9379 3.77049 1.26253 0.52597 0.452911 0.536988 0.327837 0.892685 0.112722 0.108716 0.0499168 0.0962191 0.0897422 0.0466517 0.0399986 0.0448847 0.0369861 0.160106 0.0348306 0.0130432 0.000279172
threshold=1.0000000180025095e-35 2.5000000000000004 6.5000000000000009 1.5000000000000002 1.0000000180025095e-35 1.0000000180025095e-35 32.250000000000007 28.250000000000004 38.500000000000007 24.250000000000004 16.500000000000004 24.250000000000004 27.500000000000004 23.250000000000004 43.500000000000007 50.500000000000007 2.5000000000000004 38.500000000000007 19.500000000000004 21.500000000000004 23.250000000000004 23.250000000000004 1.5000000000000002
decision_type=2 2 2 2 2 2 2 2 2 2 2 2 2 2 2 2 2 2 2 2 2 2 2
left_child=2 12 -1 8 21 -6 7 10 9 -4 -5 18 13 -2 22 -10 -8 -18 -12 -20 -21 -3 -14
right_child=1 4 3 6 5 -7 16 -9 15 -11 11 -13 14 -15 -16 -17 17 -19 19 20 -22 -23 -24
leaf_value=0.0014414756338704715 0.0027377765332207539 0.00086910517088004526 -0.00050694298858825978 -0.00084556766918727339 0.00054047091440720992 -0.000451716513318174 -0.0013779912065518529 -0.00056975493207573897 -0.00026991861787709325 0.00077967733676944458 -0.0014454167236884435 -0.0010099922683503894 0.0028582466531682899 0.002335302973235095 0.0025140920005462786 -0.00060357713699340826 -0.0017582743971244149 -0.0014739361745970589 -0.000859822698614814 -0.0015140209645032883 -0.0012858210635535857 0.0010098093599081039 0.0028814342617988586
leaf_weight=22 33 28 26 21 22 34 38 40 22 28 30 45 27 27 27 20 23 35 22 20 102 40 25
leaf_count=22 33 28 26 21 22 34 38 40 22 28 30 45 27 27 27 20 23 35 22 20 102 40 25
internal_value=0 0.00164163 -0.000873984 -0.000981908 0.000494027 -6.19286e-05 -0.00120772 -0.00110611 -9.74928e-05 0.000160193 -0.0011955 -0.00122905 0.00266539 0.00255666 0.00274796 -0.000428804 -0.00150408 -0.00158669 -0.00128571 -0.00125243 -0.00132323 0.000951872 0.00286939
internal_weight=0 263 494 472 124 56 376 280 96 54 240 219 139 60 79 42 96 58 174 144 122 68 52
internal_count=757 263 494 472 124 56 376 280 96 54 240 219 139 60 79 42 96 58 174 144 122 68 52
is_linear=0
shrinkage=0.005


Tree=20
num_leaves=27
num_cat=0
split_feature=5 0 4 4 3 0 4 4 4 4 4 4 4 4 4 4 4 4 4 4 4 4 4 4 4 4
split_gain=43.0111 12.2363 3.54001 3.40309 2.10846 0.869174 0.744224 1.50557 0.485544 0.575183 0.124254 0.157334 0.154909 0.149573 0.261151 0.130632 0.103969 0.0678575 0.119081 0.064936 0.0606525 0.205939 0.0494091 0.0477824 0.00452299 0.000551465
threshold=1.0000000180025095e-35 2.5000000000000004 26.268750000000004 23.725000000000005 1.0000000180025095e-35 1.5000000000000002 7.8916500000000012 15.372900000000001 30.750000000000004 54.050000000000004 13.931250000000002 7.910400000000001 8.3312500000000025 7.8667000000000007 7.7625000000000011 18.768750000000004 9.4791500000000024 135.06665000000001 29.850000000000005 20.787500000000005 7.2396000000000003 7.133350000000001 9.8312500000000025 87.80210000000001 11.750000000000002 65.800000000000011
decision_type=2 2 2 2 2 2 2 2 2 2 2 2 2 2 2 2 2 2 2 2 2 2 2 2 2 2
left_child=2 17 4 6 10 8 -3 22 -4 -10 11 13 -13 14 20 -12 -14 18 19 -2 21 -1 -8 -11 -18 -20
right_child=1 3 5 -5 -6 -7 7 -9 9 23 15 12 16 -15 -16 -17 24 -19 25 -21 -22 -23 -24 -25 -26 -27
leaf_value=-0.001478135117462703 0.00270698752005895 0.0015317863706619508 0.00062311001618703204 -0.0012442152266917022 0.00014274095495541892 -0.00076725482940673826 -0.00019335781782865526 0.0014731047533709427 -0.00084897554665803912 1.8709422576995124e-05 -0.0017715503559226082 -0.00085088155099323818 -0.0015200780257582664 -0.0016075383713751129 -0.00077290829420089725 -0.0012537391997616868 -0.0010573977657726832 0.0023901858783903578 0.0028779298305511474 0.0023780093590418496 -0.0015020735561847686 -0.00085182466677257004 0.00015389106812931243 0.00036019413173198701 -0.0011444148607552052 0.002846797180898262
leaf_weight=35 30 31 30 23 30 42 20 29 20 21 21 49 20 33 25 29 28 21 25 30 38 21 21 20 32 33
leaf_count=35 30 31 30 23 30 42 20 29 20 21 21 49 20 33 25 29 28 21 25 30 38 21 21 20 32 33
internal_value=0 0.00163342 -0.000869614 0.000491557 -0.00112652 -0.000172287 0.000886831 0.000601208 0.000102314 -0.000153815 -0.00124156 -0.0012007 -0.00107227 -0.00130969 -0.0012271 -0.00147122 -0.00120787 0.00265206 0.00269866 0.0025425 -0.00134789 -0.00124327 -1.54986e-05 0.000185287 -0.00110381 0.00286022
internal_weight=0 263 494 124 361 133 101 70 91 61 331 281 129 152 119 50 80 139 118 60 94 56 41 41 60 58
internal_count=757 263 494 124 361 133 101 70 91 61 331 281 129 152 119 50 80 139 118 60 94 56 41 41 60 58
is_linear=0
shrinkage=0.005


Tree=21
num_leaves=28
num_cat=0
split_feature=5 1 4 4 4 4 3 4 4 4 3 1 1 4 7 4 4 4 4 4 1 4 4 4 1 4 7
split_gain=42.582 4.87498 3.77929 3.16897 1.28155 1.43015 1.17516 0.601319 1.39896 1.38969 0.541181 0.328777 0.454325 0.651467 0.475621 0.295465 0.297571 0.171567 0.122877 0.254244 0.0552093 0.248688 0.163732 0.0961439 0.0508672 0.0180536 2.99582e-05
threshold=1.0000000180025095e-35 6.5000000000000009 26.268750000000004 47.000000000000007 27.825000000000003 25.527100000000001 1.0000000180025095e-35 10.316650000000001 7.8916500000000012 13.931250000000002 1.0000000180025095e-35 32.250000000000007 26.500000000000004 9.4791500000000024 1.0000000180025095e-35 52.277100000000011 30.035400000000003 18.375000000000004 7.910400000000001 13.208350000000001 20.500000000000004 7.7979000000000012 7.6875000000000009 8.0812500000000025 18.500000000000004 14.456250000000002 1.0000000180025095e-35
decision_type=2 2 2 2 2 2 2 2 2 2 2 2 2 2 2 2 2 2 2 2 2 2 2 2 2 2 2
left_child=1 -1 11 4 5 7 15 8 -2 -9 26 12 14 -14 20 16 -4 -11 -13 -20 24 22 -22 -23 -3 -25 -5
right_child=3 2 6 10 -6 -7 -8 9 -10 17 -12 18 13 -15 -16 -17 -18 -19 19 -21 21 23 -24 25 -26 -27 -28
leaf_value=0.0014353946393186395 0.0015241274429905799 -0.0013530894182622432 0.00023966362270025108 0.0028348134209712347 0.00023009794354438782 0.0026316857473416759 -0.00093058259059221316 0.0023084944398964152 -0.00012448398227041417 0.00075996204696852584 0.001931890335220557 -0.001740033058449626 -0.00020884394645690919 -0.0013445302908835204 -0.00067830650556472045 0.00047981977901038006 -0.00054108815996543218 0.001313821425040563 -0.001101927427869094 -0.0017511650025844574 -0.0013697398855135993 -0.0017386725653962391 -0.00076799234747886665 -0.001299461309205402 -0.0010116649344563485 -0.0015070246830582619 0.002826827829298766
leaf_weight=22 31 24 26 24 25 22 39 34 22 29 26 32 28 23 31 34 23 27 38 25 26 41 20 22 20 20 23
leaf_count=22 31 24 26 24 25 22 39 34 22 29 26 32 28 23 31 34 23 27 38 25 26 41 20 22 20 20 23
internal_value=0 -0.000865266 -0.0009725 0.00162525 0.00128505 0.00144489 -0.000214694 0.00126231 0.000839798 0.00151112 0.00251071 -0.00123665 -0.00114311 -0.000721016 -0.00124864 0.000121688 -0.000126812 0.001027 -0.00148772 -0.00135956 -0.00135084 -0.001403 -0.00110811 -0.00156644 -0.0011979 -0.0013983 0.00283091
internal_weight=0 494 472 263 190 165 122 143 53 90 73 350 255 51 204 83 49 56 95 63 173 129 46 83 44 42 47
internal_count=757 494 472 263 190 165 122 143 53 90 73 350 255 51 204 83 49 56 95 63 173 129 46 83 44 42 47
is_linear=0
shrinkage=0.005


Tree=22
num_leaves=27
num_cat=0
split_feature=6 4 4 3 2 4 4 2 4 4 3 4 4 4 4 4 7 4 4 4 4 4 4 4 4 9
split_gain=42.1573 3.46506 3.13736 2.07494 1.89956 1.26877 1.41588 0.95812 1.05729 0.711647 0.535783 0.377586 0.863676 0.325581 0.216937 0.199611 0.193636 0.134435 0.170149 0.121446 0.276371 0.223994 0.108527 0.0982418 0.0270179 3.97215e-05
threshold=1.0000000180025095e-35 26.268750000000004 47.000000000000007 1.0000000180025095e-35 2.5000000000000004 27.825000000000003 25.527100000000001 1.0000000180025095e-35 10.316650000000001 7.7625000000000011 1.0000000180025095e-35 52.277100000000011 30.750000000000004 72.391650000000013 16.050000000000004 13.208350000000001 1.0000000180025095e-35 13.208350000000001 7.7354000000000012 7.7979000000000012 7.910400000000001 8.3312500000000025 22.441650000000003 7.2396000000000003 10.316650000000001 1.0000000180025095e-35
decision_type=2 2 2 2 2 2 2 2 2 2 2 2 2 2 2 2 2 2 2 2 2 2 2 2 2 2
left_child=2 3 5 16 11 6 7 8 9 -1 25 12 -3 -13 -9 -10 17 18 23 -20 -21 -22 -19 -2 -23 -4
right_child=1 4 10 -5 -6 -7 -8 14 15 -11 -12 13 -14 -15 -16 -17 -18 22 19 20 21 24 -24 -25 -26 -27
leaf_value=0.0016523684237314308 -0.0013067563667016871 0.00033329700284144456 0.002812251262366772 0.00014401998619238536 -0.0015913841277360916 0.00022894746065139768 0.002618527283722704 0.00027638630568981173 0.0023395985950316702 0.00043369002342224123 0.0019222308809940631 0.0008912662044167519 -0.00087728670010199918 8.2793032581155945e-05 0.00096343641479810073 0.0016855822876095771 -0.00089832750268471556 -0.0017444056928157805 -0.00088632163756033962 -0.0016006983071565628 -0.0008406429874653719 -0.00139961483755282 -0.0012502530738711358 -0.0017417174790586745 -0.0012017939521206751 0.0028214464887328771
leaf_weight=23 34 34 24 30 20 25 22 20 28 25 26 20 26 33 27 20 39 25 34 36 49 28 20 21 45 23
leaf_count=23 34 34 24 30 20 25 22 20 28 25 26 20 26 33 27 20 39 25 34 36 49 28 20 21 45 23
internal_value=0 -0.00086094 0.00161713 -0.00111512 -0.000171034 0.00127863 0.00143767 0.001256 0.00154237 0.00101764 0.00249815 8.03552e-05 -0.000191289 0.000387877 0.000671075 0.00206709 -0.00122924 -0.00127343 -0.00122764 -0.0011574 -0.00121574 -0.00110214 -0.00152478 -0.00147283 -0.00127767 0.00281675
internal_weight=0 494 263 361 133 190 165 143 96 48 73 113 60 53 47 48 331 292 247 192 158 122 45 55 73 47
internal_count=757 494 263 361 133 190 165 143 96 48 73 113 60 53 47 48 331 292 247 192 158 122 45 55 73 47
is_linear=0
shrinkage=0.005


Tree=23
num_leaves=25
num_cat=0
split_feature=0 4 9 4 4 0 4 2 4 4 4 4 4 4 2 7 4 7 4 4 4 4 4 4
split_gain=14.8502 4.6538 1.85866 1.65517 0.836305 0.659151 0.644675 2.07972 0.522751 0.468306 0.41809 0.379479 0.175246 0.17087 0.14457 0.44351 0.173845 0.144007 0.130436 0.125194 0.0990051 0.0387753 0.0324586 0.0205779
threshold=2.5000000000000004 52.277100000000011 1.0000000180025095e-35 13.645850000000001 15.620850000000003 1.5000000000000002 10.508350000000002 1.5000000000000002 30.750000000000004 17.600000000000005 7.6875000000000009 11.750000000000002 7.977100000000001 23.725000000000005 1.0000000180025095e-35 1.0000000180025095e-35 82.664550000000006 1.0000000180025095e-35 8.6729000000000003 7.133350000000001 26.125000000000004 79.425000000000026 7.8667000000000007 7.7625000000000011
decision_type=2 2 2 2 2 2 2 2 2 2 2 2 2 2 2 2 2 2 2 2 2 2 2 2
left_child=1 3 4 11 10 8 12 9 -5 -8 -2 -1 19 -7 16 21 -3 -12 -14 -4 -15 -16 23 -21
right_child=2 14 6 5 -6 13 7 -9 -10 -11 17 -13 18 20 15 -17 -18 -19 -20 22 -22 -23 -24 -25
leaf_value=-0.00061554469393961355 -0.00074607940856367353 0.0014531573429703711 -0.0012327165380120277 0.00065613530777596147 0.00084467289596796028 0.0013419290383656821 0.0004610587749630213 -0.0014539518227448334 -0.00031713035973635588 -0.0003816788336809944 0.00010898389750056796 8.096743685503801e-05 -0.0013089532201940363 0.00063424672032224726 0.0009893016368150711 0.0020268755067478529 0.0020549692610899611 -0.00040093063563108447 -0.00087917668888202083 -0.00082219406389273143 0.0010510759641017232 0.0012969217697779336 -0.00089848956984022387 -0.00063000996907552084
leaf_weight=33 32 20 20 37 20 24 32 37 22 34 45 48 55 29 20 22 30 20 26 26 28 21 46 30
leaf_count=33 32 20 20 37 20 24 32 37 22 34 45 48 55 29 20 22 30 20 26 26 28 21 46 30
internal_value=0 0.000788108 -0.000622289 0.000366078 -8.62856e-05 0.000695212 -0.000827231 -0.000505043 0.000293223 2.69212e-05 -0.000278236 -0.000202797 -0.000990706 0.000988019 0.00161349 0.00145417 0.00181424 -4.79129e-05 -0.001171 -0.000871002 0.000839005 0.00114686 -0.000800077 -0.000719238
internal_weight=0 334 423 221 117 140 306 103 59 66 97 81 203 81 113 63 50 65 81 122 57 41 102 56
internal_count=757 334 423 221 117 140 306 103 59 66 97 81 203 81 113 63 50 65 81 122 57 41 102 56
is_linear=0
shrinkage=0.005


Tree=24
num_leaves=26
num_cat=0
split_feature=6 0 4 4 9 0 4 7 4 4 9 4 4 4 4 4 4 4 4 4 4 4 4 4 4
split_gain=41.6396 11.8883 3.39142 3.34797 0.983109 0.843014 0.479158 0.722521 0.391375 0.375532 0.243618 0.230785 0.13824 0.235009 0.104994 0.117226 0.0877738 0.158689 0.108498 0.070169 0.114554 0.066075 0.0563969 0.176586 0.00117391
threshold=1.0000000180025095e-35 2.5000000000000004 26.268750000000004 23.725000000000005 1.0000000180025095e-35 1.5000000000000002 30.750000000000004 1.0000000180025095e-35 10.508350000000002 7.910400000000001 1.0000000180025095e-35 8.0812500000000025 7.8667000000000007 7.7625000000000011 8.3312500000000025 10.316650000000001 20.787500000000005 15.800000000000002 12.500000000000002 135.06665000000001 29.850000000000005 20.787500000000005 7.2396000000000003 7.133350000000001 65.800000000000011
decision_type=2 2 2 2 2 2 2 2 2 2 2 2 2 2 2 2 2 2 2 2 2 2 2 2 2
left_child=1 19 9 4 11 6 -4 -8 -6 12 -11 -3 13 22 -12 -16 17 18 -17 20 21 -1 23 -2 -22
right_child=2 3 5 -5 8 -7 7 -9 -10 10 14 -13 -14 -15 15 16 -18 -19 -20 -21 24 -23 -24 -25 -26
leaf_value=0.0026713656783103946 -0.0014522818795272283 0.0018045144257220357 0.0006146946350733439 -0.0012399982239889062 7.8749009408056732e-05 -0.00075904861802146551 -0.0006105758663680819 0.00049589236974716187 0.00090463249729229854 -0.00048284246869709186 -0.00083039760589599611 0.0010717121901966278 -0.0015809197543245374 -0.00079462533386854021 -0.001388627982565335 -0.00077225966751575477 -0.0012600932501513381 -0.00055385751277208331 -0.0012272349156831441 0.0023449207629476273 0.0028429052352905273 0.0023395147174596789 -0.001480313563033154 -0.00088061794638633734 0.0027974824562217249
leaf_weight=30 35 22 30 23 32 42 36 25 26 23 49 21 33 26 28 20 29 20 38 21 25 30 38 22 33
leaf_count=30 35 22 30 23 32 42 36 25 26 23 49 21 33 26 28 20 29 20 38 21 25 30 38 22 33
internal_value=0 0.00160717 -0.000855638 0.000481659 0.00087372 -0.000173102 9.73343e-05 -0.000157105 0.000448973 -0.0011071 -0.000968002 0.00144663 -0.00129406 -0.00121583 -0.00102865 -0.0011006 -0.00102523 -0.000937914 -0.00107035 0.00261122 0.00265861 0.00250544 -0.00133111 -0.00123164 0.00281706
internal_weight=0 263 494 124 101 133 91 61 58 361 207 43 154 121 184 135 107 78 58 139 118 60 95 57 58
internal_count=757 263 494 124 101 133 91 61 58 361 207 43 154 121 184 135 107 78 58 139 118 60 95 57 58
is_linear=0
shrinkage=0.005


Tree=25
num_leaves=25
num_cat=0
split_feature=5 1 2 7 1 7 1 1 1 1 1 2 2 1 1 1 1 1 1 2 1 1 2 1
split_gain=41.2243 4.80967 2.07511 1.10296 0.589274 0.638503 0.456991 1.13122 0.365919 0.625558 0.533579 0.315602 0.206841 0.412762 0.164366 0.116897 0.113411 0.102943 0.0903151 0.0890055 0.0598922 0.0439964 0.0434439 0.0423666
threshold=1.0000000180025095e-35 6.5000000000000009 1.5000000000000002 1.0000000180025095e-35 47.500000000000007 1.0000000180025095e-35 38.500000000000007 32.250000000000007 26.500000000000004 32.250000000000007 30.500000000000004 1.0000000180025095e-35 1.0000000180025095e-35 25.500000000000004 19.500000000000004 25.500000000000004 52.500000000000007 23.250000000000004 35.500000000000007 1.0000000180025095e-35 19.500000000000004 39.500000000000007 1.0000000180025095e-35 46.500000000000007
decision_type=2 2 2 2 2 2 2 2 2 2 2 2 2 2 2 2 2 2 2 2 2 2 2 2
left_child=1 -1 4 8 5 6 7 12 17 10 -10 15 13 14 -2 -5 18 19 -11 20 -3 -20 -19 -23
right_child=2 3 -4 11 -6 -7 -8 -9 9 16 -12 -13 -14 -15 -16 -17 -18 22 21 -21 -22 23 -24 -25
leaf_value=0.0014338391883806747 0.001735598154011227 -0.0012760320771485567 0.00036138988037904104 -0.00078628788099569425 0.0025790862441062929 0.0022030511239300604 0.00086628352376547731 0.0026312751447161039 -0.00081562764397481605 -0.0013048862827860792 0.00018052823841571808 0.0001299627423286438 0.0011432091815349384 0.0021901346885022663 0.0011893359757959843 -0.00032475135248640315 -0.0013990724258697951 -0.0010680243838578462 -0.00077545050978660584 -0.0010575591098694575 -0.0015774109565159856 -0.0011452772049233317 -0.0013099647864051487 -0.00086024588481946427
leaf_weight=22 21 32 30 34 20 46 22 24 41 23 20 20 39 21 40 23 26 96 25 21 34 32 23 22
leaf_count=22 21 32 30 34 20 46 22 24 41 23 20 20 39 21 40 23 26 96 25 21 34 32 23 22
internal_value=0 -0.00085136 0.00159913 -0.000957873 0.0017585 0.00168145 0.00153777 0.00163965 -0.00106459 -0.000905709 -0.000489019 -0.000410439 0.00144297 0.00158553 0.00137739 -0.000600054 -0.00110429 -0.00121036 -0.00102915 -0.00134108 -0.00143129 -0.000948868 -0.00111479 -0.00102915
internal_weight=0 494 263 472 233 213 167 145 395 189 61 77 121 82 61 57 128 206 102 87 66 79 119 54
internal_count=757 494 263 472 233 213 167 145 395 189 61 77 121 82 61 57 128 206 102 87 66 79 119 54
is_linear=0
shrinkage=0.005


Tree=26
num_leaves=27
num_cat=0
split_feature=5 4 4 3 4 4 3 4 4 4 3 4 4 4 4 4 4 4 4 4 4 4 4 4 4 9
split_gain=40.8131 3.34501 3.02835 2.02629 1.23897 1.38085 0.743114 0.577869 1.36481 1.34977 0.520734 0.393065 0.286354 0.286451 0.169269 0.128 0.15347 0.153094 0.144119 0.255204 0.129264 0.100506 0.0600417 0.196734 0.00482307 8.6846e-05
threshold=1.0000000180025095e-35 26.268750000000004 47.000000000000007 1.0000000180025095e-35 27.825000000000003 25.527100000000001 1.0000000180025095e-35 10.316650000000001 7.8916500000000012 13.931250000000002 1.0000000180025095e-35 52.277100000000011 52.277100000000011 30.035400000000003 18.375000000000004 13.931250000000002 7.910400000000001 8.3312500000000025 7.8667000000000007 7.7625000000000011 18.768750000000004 9.4791500000000024 7.2396000000000003 7.133350000000001 11.750000000000002 1.0000000180025095e-35
decision_type=2 2 2 2 2 2 2 2 2 2 2 2 2 2 2 2 2 2 2 2 2 2 2 2 2 2
left_child=1 3 4 15 5 7 12 8 -2 -9 25 -8 13 -3 -11 16 18 -18 19 22 -17 -19 23 -1 -23 -4
right_child=2 6 10 -5 -6 -7 11 9 -10 14 -12 -13 -14 -15 -16 20 17 21 -20 -21 -22 24 -24 -25 -26 -27
leaf_value=-0.0014395811387470793 0.0014980572558218434 0.00023575104773044587 0.0027641593664884567 0.00014745095868905385 0.00022128823995590211 0.0025818894058465959 -0.0010767142073466228 0.0022660723898340674 -0.00013030606914650312 0.0007378745592873672 0.0018889447015065415 -0.00018936388194561006 0.0004733932894818923 -0.00053027294252229777 0.0012880123710190807 -0.0017414589084330059 -0.0008212064571526585 -0.0014830611422657967 -0.0015681486418752961 -0.00074572016596794138 -0.0012263663318650476 -0.0010258580265300615 -0.0014675221003984152 -0.00082742788961955483 -0.0011157153034582735 0.0027777557787687884
leaf_weight=35 31 26 24 30 25 22 26 34 22 29 26 24 34 23 27 21 49 20 33 25 29 28 38 21 32 23
leaf_count=35 31 26 24 30 25 22 26 34 22 29 26 24 34 23 27 21 49 20 33 25 29 28 38 21 32 23
internal_value=0 -0.000847103 0.00159114 -0.00109684 0.00125857 0.00141573 -0.000169253 0.00123632 0.000822133 0.00148024 0.00245672 -0.000650786 0.000120827 -0.000123811 0.00100312 -0.00120961 -0.00116814 -0.0010413 -0.00127578 -0.00119471 -0.00144271 -0.0011761 -0.00131412 -0.00121002 -0.00107378 0.00277081
internal_weight=0 494 263 361 190 165 133 143 53 90 73 50 83 49 56 331 281 129 152 119 50 80 94 56 60 47
internal_count=757 494 263 361 190 165 133 143 53 90 73 50 83 49 56 331 281 129 152 119 50 80 94 56 60 47
is_linear=0
shrinkage=0.005


Tree=27
num_leaves=26
num_cat=0
split_feature=5 0 1 0 2 1 1 2 1 1 1 1 8 1 1 1 1 1 1 1 1 1 1 0 8
split_gain=40.406 11.6736 4.752 3.51027 1.2096 0.446074 0.51376 0.327432 0.32611 0.871083 0.108119 0.105686 0.0784728 0.0463737 0.0961265 0.0875596 0.0463605 0.0380172 0.0771164 0.0367216 0.158973 0.0327512 0.00181232 0.000794026 9.89241e-05
threshold=1.0000000180025095e-35 2.5000000000000004 6.5000000000000009 1.5000000000000002 1.0000000180025095e-35 32.250000000000007 28.250000000000004 1.5000000000000002 38.500000000000007 24.250000000000004 16.500000000000004 24.250000000000004 1.0000000180025095e-35 27.500000000000004 23.250000000000004 43.500000000000007 50.500000000000007 38.500000000000007 44.500000000000007 19.500000000000004 21.500000000000004 23.250000000000004 22.500000000000004 1.5000000000000002 1.0000000180025095e-35
decision_type=2 2 2 2 2 2 2 2 2 2 2 2 2 2 2 2 2 2 2 2 2 2 2 2 2
left_child=2 13 -1 8 12 6 10 -6 9 -4 -5 19 22 14 -2 23 -10 -7 -19 -12 -21 -22 -3 -15 -23
right_child=1 4 3 5 7 17 -8 -9 16 -11 11 -13 -14 15 -16 -17 -18 18 -20 20 21 24 -24 -25 -26
leaf_value=0.0014285898276350714 0.0026543559450091735 0.00084122311501275929 -0.00049739776895596434 -0.0008105025121143886 0.00023124796940999872 -0.0015863821917289011 -0.00054115397110581398 -0.00055159338495948103 -0.00026743803511966358 0.00077355965971946715 -0.00140107332666715 -0.00097008994883961142 0.0011791625544428825 0.0027588604225052727 0.0022520761026276481 0.0024267057301821534 -0.00060005361586809157 -0.0011917371675372124 -0.0015537378961040127 -0.00081756166436455465 -0.0014643353819847108 -0.0012405449096803312 0.00077929090018625613 0.0027979658484458924 -0.0012527227117901758
leaf_weight=22 33 21 26 21 34 37 40 22 22 28 30 45 20 27 27 27 20 28 31 22 20 81 27 25 21
leaf_count=22 33 21 26 21 34 37 40 22 22 28 30 45 20 27 27 27 20 28 31 22 20 81 27 25 21
internal_value=0 0.00158318 -0.000842867 -0.00094874 0.00046788 -0.00116662 -0.00106578 -7.62968e-05 -9.53894e-05 0.000161617 -0.00115321 -0.00118608 0.000916026 0.00257812 0.00247333 0.00265771 -0.000425826 -0.00146074 -0.00138194 -0.00124193 -0.00120878 -0.00127933 0.000806386 0.00277766 -0.00124305
internal_weight=0 263 494 472 124 376 280 56 96 54 240 219 68 139 60 79 42 96 59 174 144 122 48 52 102
internal_count=757 263 494 472 124 376 280 56 96 54 240 219 68 139 60 79 42 96 59 174 144 122 48 52 102
is_linear=0
shrinkage=0.005


Tree=28
num_leaves=17
num_cat=0
split_feature=6 0 0 9 3 2 2 7 0 7 3 3 0 7 9 2
split_gain=40.0029 11.5572 3.18235 2.3721 0.85972 1.59092 0.852474 0.187263 0.108055 0.0491101 0.0455569 0.0457257 0.0551576 0.0211108 0.0126847 0.00433487
threshold=1.0000000180025095e-35 2.5000000000000004 1.5000000000000002 1.0000000180025095e-35 1.0000000180025095e-35 2.5000000000000004 1.0000000180025095e-35 1.0000000180025095e-35 2.5000000000000004 1.0000000180025095e-35 1.5000000000000002 1.0000000180025095e-35 1.5000000000000002 1.0000000180025095e-35 1.0000000180025095e-35 1.0000000180025095e-35
decision_type=2 2 2 2 2 2 2 2 2 2 2 2 2 2 2 2
left_child=1 10 7 -3 8 -6 -5 15 -4 14 11 12 13 -1 -10 -2
right_child=2 3 4 6 5 -7 -8 -9 9 -11 -12 -13 -14 -15 -16 -17
leaf_value=0.002755902586159883 -0.00021085610532242319 0.0013818306227525077 -0.0012962433379143476 0.00051125313672754501 0.00012885609739705136 -0.0015859656461647579 -0.00053163742256719018 0.00028194499202072621 -0.0012107651295333074 -0.00091174610597746721 0.0023564859005537901 0.0027941036105155947 0.0024102384081253641 0.0025562880245538861 -0.001098612443461937 -0.00012268297374248504
leaf_weight=27 46 45 80 36 38 21 43 32 29 35 22 25 39 26 193 20
leaf_count=27 46 45 80 36 38 21 43 32 29 35 22 25 39 26 193 20
internal_value=0 0.00157526 -0.000838653 0.000465541 -0.00103829 -0.000481504 -5.63962e-05 -3.19469e-05 -0.00113577 -0.00108582 0.00256523 0.00260449 0.00255296 0.00265798 -0.00111326 -0.000184137
internal_weight=0 263 494 124 396 59 79 98 337 257 139 117 92 53 222 66
internal_count=757 263 494 124 396 59 79 98 337 257 139 117 92 53 222 66
is_linear=0
shrinkage=0.005


Tree=29
num_leaves=29
num_cat=0
split_feature=0 4 3 1 1 1 8 1 1 7 1 1 4 1 1 4 4 4 4 1 4 4 4 4 1 1 4 4
split_gain=14.1088 4.39755 3.9843 2.28532 1.593 1.09995 1.04203 1.11495 0.830879 0.79796 0.761542 0.710213 0.650124 0.671218 0.579771 0.540431 0.433544 0.279426 0.428693 0.591129 0.543003 0.259726 0.155356 0.124902 0.563149 0.120826 0.0990649 0.0965269
threshold=2.5000000000000004 52.277100000000011 1.0000000180025095e-35 6.5000000000000009 24.250000000000004 32.250000000000007 1.0000000180025095e-35 25.500000000000004 43.500000000000007 1.0000000180025095e-35 27.500000000000004 29.500000000000004 11.750000000000002 45.250000000000007 29.500000000000004 7.7979000000000012 9.5437500000000011 7.910400000000001 17.600000000000005 20.500000000000004 8.0812500000000025 7.7812500000000009 107.66250000000001 26.775000000000002 27.500000000000004 33.500000000000007 7.910400000000001 7.5083000000000011
decision_type=2 2 2 2 2 2 2 2 2 2 2 2 2 2 2 2 2 2 2 2 2 2 2 2 2 2 2 2
left_child=1 2 12 -2 -4 6 7 9 11 15 -9 22 -1 23 -12 27 26 -17 19 -19 -21 -8 -3 24 -14 -26 -7 -5
right_child=3 8 4 5 -6 16 21 10 -10 -11 14 -13 13 -15 -16 17 -18 18 -20 20 -22 -23 -24 -25 25 -27 -28 -29
leaf_value=-0.00060107524196306868 0.00080091559776553404 0.0017153504252433777 0.0026723439856009053 -0.00077874014065379199 0.00072260807454586028 -0.0016948642631371817 -0.00022086792823040123 0.00067730428278446196 0.00087321430444717405 -0.00025245811417698861 -0.0011020221525714512 0.002387030874105061 -6.6404332717259732e-05 -0.00042774750930922372 3.5577223946650824e-05 -0.0017015464344750282 -0.00065688576726686393 -0.00018185686658729207 -0.0015286119323637752 -0.0017384891957044602 -0.00061444291046687538 0.00049044098882448115 0.0011459458068661067 0.00010283570270985364 0.0010901253351143429 0.00058840787304299217 -0.0012471049527327221 -0.00029338285326957703
leaf_weight=33 27 25 22 21 20 30 33 20 31 40 21 34 30 35 24 23 21 22 36 22 21 21 23 32 21 28 21 20
leaf_count=33 27 25 22 21 20 30 33 20 31 40 21 34 30 35 24 23 21 22 36 22 21 21 23 32 21 28 21 20
internal_value=0 0.000768183 0.000357936 -0.000606555 0.0017439 -0.000702519 -0.000578296 -0.000705106 0.00157052 -0.000886029 -0.0001345 0.00183414 3.27375e-05 0.000175997 -0.000495302 -0.00103962 -0.00126152 -0.00120417 -0.0010909 -0.000848476 -0.00118954 5.57522e-05 0.00144251 0.000366366 0.000473113 0.00080343 -0.00151049 -0.00054198
internal_weight=0 334 221 423 42 396 324 270 113 205 65 82 179 146 45 165 72 124 101 65 43 54 48 111 79 49 51 41
internal_count=757 334 221 423 42 396 324 270 113 205 65 82 179 146 45 165 72 124 101 65 43 54 48 111 79 49 51 41
is_linear=0
shrinkage=0.005


Tree=30
num_leaves=30
num_cat=0
split_feature=6 1 4 4 4 4 1 9 4 4 1 1 1 1 1 4 7 4 4 4 4 4 1 4 4 4 1 4 1
split_gain=39.4869 4.6627 3.48424 2.90242 1.21747 1.32741 0.569538 0.939796 0.601338 1.03764 0.42606 0.653261 0.379616 0.321297 0.435314 0.647609 0.452775 0.159686 0.113642 0.260344 0.103616 0.0585649 0.0534604 0.245673 0.156965 0.0902361 0.0521415 0.0187534 0.000301626
threshold=1.0000000180025095e-35 6.5000000000000009 26.268750000000004 47.000000000000007 27.825000000000003 25.527100000000001 32.250000000000007 1.0000000180025095e-35 16.400000000000002 10.508350000000002 24.250000000000004 38.500000000000007 28.250000000000004 32.250000000000007 26.500000000000004 9.4791500000000024 1.0000000180025095e-35 14.427100000000001 7.910400000000001 13.208350000000001 38.002100000000006 47.000000000000007 20.500000000000004 7.7979000000000012 7.6875000000000009 8.0812500000000025 18.500000000000004 14.456250000000002 38.500000000000007
decision_type=2 2 2 2 2 2 2 2 2 2 2 2 2 2 2 2 2 2 2 2 2 2 2 2 2 2 2 2 2
left_child=3 -2 13 4 5 6 7 17 9 -9 21 -12 -5 14 16 -16 22 -1 -15 -20 -13 -4 26 24 -24 -25 -3 -27 -14
right_child=1 2 10 12 -6 -7 -8 8 -10 -11 11 20 28 18 15 -17 -18 -19 19 -21 -22 -23 23 25 -26 27 -28 -29 -30
leaf_value=0.0018503806765737204 0.0014167867397720164 -0.0013088959082961083 -0.00044025473296642302 0.0020043406402692199 0.00021125239729881287 0.0025386580079793932 0.001959404240955006 0.00043035378859889123 -1.9754655659198762e-05 0.0018911231979727744 0.00047862690138189421 -0.00017780447999636334 0.0027171129137277604 -0.0016825716709718108 -0.00017543730459042956 -0.0013077554430650628 -0.00064609005085883601 0.0012778749636241369 -0.0010559711605310441 -0.0017129509270191192 -0.0006744974496818725 -0.00081409588456153874 -0.0013166689815429541 -0.0016829031851233506 -0.00072748771309852605 -0.001252417747269977 -0.0009632211849093438 -0.0014639655500650406 0.0027442442803155809
leaf_weight=29 22 24 22 32 25 22 22 31 20 20 38 21 20 32 28 23 31 21 38 25 21 20 26 41 20 22 20 20 21
leaf_count=29 22 24 22 32 25 22 22 31 20 20 38 21 20 32 28 23 31 21 38 25 21 20 26 41 20 22 20 20 21
internal_value=0 -0.000833226 -0.0009381 0.00156507 0.00123949 0.00139529 0.00121938 0.00108483 0.000715047 0.0010032 -0.000210476 3.61852e-06 0.00241247 -0.00119173 -0.00109926 -0.000686091 -0.00120256 0.00160993 -0.00143993 -0.00131668 -0.000426151 -0.000618274 -0.00130227 -0.0013536 -0.0010605 -0.00151604 -0.00115177 -0.00135315 0.00273101
internal_weight=0 494 472 263 190 165 143 121 71 51 122 80 73 350 255 51 204 50 95 63 42 42 173 129 46 83 44 42 41
internal_count=757 494 472 263 190 165 143 121 71 51 122 80 73 350 255 51 204 50 95 63 42 42 173 129 46 83 44 42 41
is_linear=0
shrinkage=0.005


Tree=31
num_leaves=26
num_cat=0
split_feature=6 1 3 1 7 9 1 1 1 1 1 1 1 1 1 1 1 1 1 1 1 1 8 1 1
split_gain=39.093 4.61619 1.63056 1.1637 1.05222 0.622445 0.34587 0.605682 0.520954 0.344628 0.236047 0.143475 0.112935 0.102622 0.0860743 0.0806558 0.0766158 0.151716 0.0588716 0.042867 0.0418877 0.0429644 0.0326418 0.0255011 0.000180857
threshold=1.0000000180025095e-35 6.5000000000000009 1.5000000000000002 32.250000000000007 1.0000000180025095e-35 1.0000000180025095e-35 26.500000000000004 32.250000000000007 30.500000000000004 22.500000000000004 36.250000000000007 24.250000000000004 52.500000000000007 23.250000000000004 35.500000000000007 20.500000000000004 25.500000000000004 19.500000000000004 46.500000000000007 21.500000000000004 39.500000000000007 46.500000000000007 1.0000000180025095e-35 18.500000000000004 24.250000000000004
decision_type=2 2 2 2 2 2 2 2 2 2 2 2 2 2 2 2 2 2 2 2 2 2 2 2 2
left_child=2 -2 3 5 6 9 13 8 -8 -1 -5 -6 14 15 -9 23 17 -7 -12 -4 -16 -22 24 -3 -15
right_child=1 4 19 10 11 16 7 12 -10 -11 18 -13 -14 22 20 -17 -18 -19 -20 -21 21 -23 -24 -25 -26
leaf_value=0.0013757837191224098 0.0014097027819265017 -0.0012864136169938481 0.00059804512631325495 0.0027629074603319169 -0.00061736703311142177 0.0014423166587948799 -0.00079588067604274284 -0.0012727789580821991 0.00018842021375894546 0.0021866561315561596 0.0019409014036258063 -0.00018566898810557831 -0.0013727401712766061 -0.0010481982171535492 -0.00075600920319557189 -0.0015197246770064035 0.0014537312462925911 0.00092617143903459822 0.0023034064826511205 0.00088877188507467512 -0.0011204975517466664 -0.00083346253768964247 -0.0012578213214874269 -0.0010708461831445278 -0.001031894704157656
leaf_weight=20 22 34 21 20 38 24 41 23 20 38 24 39 26 75 25 30 28 35 21 32 32 22 22 23 22
leaf_count=20 22 34 21 20 38 24 41 23 20 38 24 39 26 75 25 30 28 35 21 32 32 22 22 23 22
internal_value=0 -0.00082906 0.00155725 0.00175503 -0.000933409 0.00150583 -0.00103764 -0.000883176 -0.000473159 0.00190704 0.00231094 -0.000398715 -0.00107857 -0.00117936 -0.00100359 -0.00130988 0.00123835 0.00113613 0.00211007 0.000773578 -0.000925219 -0.00100356 -0.00108394 -0.00119943 -0.0010445
internal_weight=0 494 263 210 472 145 395 189 61 58 65 77 128 206 102 87 87 59 45 53 79 54 119 57 97
internal_count=757 494 263 210 472 145 395 189 61 58 65 77 128 206 102 87 87 59 45 53 79 54 119 57 97
is_linear=0
shrinkage=0.005


Tree=32
num_leaves=28
num_cat=0
split_feature=6 1 4 4 4 4 3 4 4 4 3 1 1 4 7 4 4 4 4 4 1 4 4 4 1 4 1
split_gain=38.703 4.57014 3.44248 2.86632 1.20004 1.31496 1.13348 0.559112 1.33152 1.29872 0.502849 0.317628 0.425815 0.639459 0.444067 0.277885 0.284176 0.166168 0.112941 0.257601 0.0529302 0.243346 0.155592 0.0894089 0.0512984 0.0186677 9.97964e-05
threshold=1.0000000180025095e-35 6.5000000000000009 26.268750000000004 47.000000000000007 27.825000000000003 25.527100000000001 1.0000000180025095e-35 10.316650000000001 7.8916500000000012 13.931250000000002 1.0000000180025095e-35 32.250000000000007 26.500000000000004 9.4791500000000024 1.0000000180025095e-35 52.277100000000011 30.035400000000003 18.375000000000004 7.910400000000001 13.208350000000001 20.500000000000004 7.7979000000000012 7.6875000000000009 8.0812500000000025 18.500000000000004 14.456250000000002 32.250000000000007
decision_type=2 2 2 2 2 2 2 2 2 2 2 2 2 2 2 2 2 2 2 2 2 2 2 2 2 2 2
left_child=3 -2 11 4 5 7 15 8 -1 -9 26 12 14 -14 20 16 -4 -11 -13 -20 24 22 -22 -23 -3 -25 -5
right_child=1 2 6 10 -6 -7 -8 9 -10 17 -12 18 13 -15 -16 -17 -18 -19 19 -21 21 23 -24 25 -26 -27 -28
leaf_value=0.0014657270427673094 0.0014026542685248635 -0.0012959193562467894 0.00024200895657906167 0.0027079881727695466 0.00020505927205085754 0.0025185840238224379 -0.00090856863902165342 0.0022162644740413217 -0.00014265674759041179 0.00071461875377030212 0.001833629270012562 -0.0016695190407335758 -0.00017284106995378221 -0.0012980118523473324 -0.00063998170918033975 0.00047218402080676132 -0.0005209680614264115 0.0012596943146652646 -0.0010454255460124267 -0.0016989358723163606 -0.0013042324953354324 -0.0016686609968906497 -0.0007176349312067032 -0.0012399210306731137 -0.00095305084437131884 -0.0014509846419095993 0.0026933867573738098
leaf_weight=31 22 24 26 22 25 22 39 34 22 29 26 32 28 23 31 34 23 27 38 25 26 41 20 22 20 20 25
leaf_count=31 22 24 26 22 25 22 39 34 22 29 26 32 28 23 31 34 23 27 38 25 26 41 20 22 20 20 25
internal_value=0 -0.000824915 -0.000928742 0.00154946 0.00122591 0.00138059 -0.000205491 0.00120551 0.000798096 0.00144543 0.00239157 -0.00118085 -0.00108891 -0.000680271 -0.00119107 0.00012487 -0.000116123 0.000977423 -0.00142762 -0.00130476 -0.00128982 -0.0013409 -0.00104919 -0.00150257 -0.00114007 -0.00134043 0.00270022
internal_weight=0 494 472 263 190 165 122 143 53 90 73 350 255 51 204 83 49 56 95 63 173 129 46 83 44 42 47
internal_count=757 494 472 263 190 165 122 143 53 90 73 350 255 51 204 83 49 56 95 63 173 129 46 83 44 42 47
is_linear=0
shrinkage=0.005


Tree=33
num_leaves=27
num_cat=0
split_feature=5 4 4 3 2 4 4 2 4 4 3 4 4 4 4 4 7 4 4 4 4 4 4 4 4 4
split_gain=38.317 3.13581 2.83773 1.9272 1.8302 1.18807 1.30185 0.902991 0.980509 0.675544 0.497833 0.355748 0.84272 0.333702 0.211418 0.184251 0.176563 0.137807 0.160653 0.114644 0.263953 0.223577 0.106558 0.0976827 0.0247815 6.95462e-05
threshold=1.0000000180025095e-35 26.268750000000004 47.000000000000007 1.0000000180025095e-35 2.5000000000000004 27.825000000000003 25.527100000000001 1.0000000180025095e-35 10.316650000000001 7.7625000000000011 1.0000000180025095e-35 52.277100000000011 30.750000000000004 72.391650000000013 16.050000000000004 13.208350000000001 1.0000000180025095e-35 13.208350000000001 7.7354000000000012 7.7979000000000012 7.910400000000001 8.3312500000000025 22.441650000000003 7.2396000000000003 10.316650000000001 80.929150000000007
decision_type=2 2 2 2 2 2 2 2 2 2 2 2 2 2 2 2 2 2 2 2 2 2 2 2 2 2
left_child=1 3 5 16 11 6 7 8 9 -2 25 12 -3 -13 -9 -10 17 18 23 -20 -21 -22 -19 -1 -23 -4
right_child=2 4 10 -5 -6 -7 -8 14 15 -11 -12 13 -14 -15 -16 -17 -18 22 19 20 21 24 -24 -25 -26 -27
leaf_value=-0.0012410605479689207 0.0015905949408593384 0.00033678768750499278 0.0026934879592486788 0.00015089275936285655 -0.0015586542561650278 0.00020403398275375365 0.0025059910931370479 0.00024199920147657393 0.0022446143786822048 0.00040323185920715333 0.0018244611357267088 0.00089040153473615648 -0.00085901964742403759 7.1908330375497985e-05 0.00092025488615036014 0.0016162642017006873 -0.00085658775308193309 -0.0016868783771991731 -0.00083678244667894698 -0.0015330524742603303 -0.00078456990876976326 -0.001337979148541178 -0.0011972299516201019 -0.0016747821228844779 -0.0011485224233733283 0.0026812542172578663
leaf_weight=34 23 34 21 30 20 25 22 20 28 25 26 20 26 33 27 20 39 25 34 36 49 28 20 21 45 26
leaf_count=34 23 34 21 30 20 25 22 20 28 25 26 20 26 33 27 20 39 25 34 36 49 28 20 21 45 26
internal_value=0 -0.00082079 0.00154171 -0.00106259 -0.00016448 0.00121978 0.00137368 0.00119948 0.00147749 0.000972177 0.00237961 8.22768e-05 -0.000181395 0.000380774 0.000631635 0.0019828 -0.00117257 -0.00121478 -0.00116841 -0.00110016 -0.00115684 -0.00104583 -0.00146926 -0.00140666 -0.00122119 0.00268672
internal_weight=0 494 263 361 133 190 165 143 96 48 73 113 60 53 47 48 331 292 247 192 158 122 45 55 73 47
internal_count=757 494 263 361 133 190 165 143 96 48 73 113 60 53 47 48 331 292 247 192 158 122 45 55 73 47
is_linear=0
shrinkage=0.005


Tree=34
num_leaves=25
num_cat=0
split_feature=5 1 2 7 1 7 1 1 1 1 1 2 2 1 1 1 1 1 1 2 1 2 1 1
split_gain=37.9348 4.51785 1.95896 1.02394 0.560121 0.608292 0.456867 1.06412 0.335267 0.595924 0.51191 0.300059 0.201097 0.398463 0.159372 0.11297 0.110725 0.101362 0.083733 0.0835864 0.0573174 0.0428736 0.0416802 0.0428298
threshold=1.0000000180025095e-35 6.5000000000000009 1.5000000000000002 1.0000000180025095e-35 47.500000000000007 1.0000000180025095e-35 38.500000000000007 32.250000000000007 26.500000000000004 32.250000000000007 30.500000000000004 1.0000000180025095e-35 1.0000000180025095e-35 25.500000000000004 19.500000000000004 52.500000000000007 25.500000000000004 23.250000000000004 35.500000000000007 1.0000000180025095e-35 19.500000000000004 1.0000000180025095e-35 39.500000000000007 46.500000000000007
decision_type=2 2 2 2 2 2 2 2 2 2 2 2 2 2 2 2 2 2 2 2 2 2 2 2
left_child=1 -1 4 8 5 6 7 12 17 10 -10 16 13 14 -2 18 -5 19 -11 20 -3 -19 -20 -24
right_child=2 3 -4 11 -6 -7 -8 -9 9 15 -12 -13 -14 -15 -16 -17 -18 21 22 -21 -22 -23 23 -25
leaf_value=0.0013981012390418487 0.0016733850609688533 -0.0012275219801813364 0.00033140052855014796 -0.00075859466896337614 0.0024888777807354928 0.0021228396503821666 0.00080209293148734366 0.002537119158854087 -0.00078386763247047979 -0.0012549849826356638 0.00019185157865285872 0.00013446905463933946 0.0010890281085784619 0.0021192032453559695 0.0011354858539998531 -0.0013586903478090579 -0.00030940822285154592 -0.0010209811525419355 -0.00074339427947998048 -0.001017230912333443 -0.0015223513236817191 -0.0012613282125929128 -0.0011070854868739843 -0.0008205002681775527
leaf_weight=22 21 32 30 34 20 46 22 24 41 23 20 20 39 21 40 26 23 96 25 21 34 23 32 22
leaf_count=22 21 32 30 34 20 46 22 24 41 23 20 20 39 21 40 26 23 96 25 21 34 23 32 22
internal_value=0 -0.000816686 0.001534 -0.000919918 0.00168885 0.00161372 0.00147349 0.00157536 -0.00102274 -0.00087066 -0.00046396 -0.000392457 0.00138459 0.00152517 0.00132066 -0.00106448 -0.000577344 -0.00116227 -0.000989483 -0.00129198 -0.0013794 -0.00106743 -0.000912185 -0.000990329
internal_weight=0 494 263 472 233 213 167 145 395 189 61 77 121 82 61 128 57 206 102 87 66 119 79 54
internal_count=757 494 263 472 233 213 167 145 395 189 61 77 121 82 61 128 57 206 102 87 66 119 79 54
is_linear=0
shrinkage=0.005


Tree=35
num_leaves=26
num_cat=0
split_feature=6 4 4 3 4 4 3 4 4 4 3 4 4 4 7 4 4 4 4 4 4 4 4 4 9
split_gain=37.5564 3.09286 2.80131 1.89448 1.17231 1.2884 0.732381 0.548657 1.31175 1.27018 0.488885 0.39057 0.270996 0.278725 0.172403 0.164289 0.136479 0.15868 0.113306 0.261324 0.220736 0.105398 0.0965601 0.0245091 9.51698e-05
threshold=1.0000000180025095e-35 26.268750000000004 47.000000000000007 1.0000000180025095e-35 27.825000000000003 25.527100000000001 1.0000000180025095e-35 10.316650000000001 7.8916500000000012 13.931250000000002 1.0000000180025095e-35 52.277100000000011 52.277100000000011 30.035400000000003 1.0000000180025095e-35 18.375000000000004 13.208350000000001 7.7354000000000012 7.7979000000000012 7.910400000000001 8.3312500000000025 22.441650000000003 7.2396000000000003 10.316650000000001 1.0000000180025095e-35
decision_type=2 2 2 2 2 2 2 2 2 2 2 2 2 2 2 2 2 2 2 2 2 2 2 2 2
left_child=2 3 4 14 5 7 12 8 -1 -9 24 -8 13 -3 16 -11 17 22 -19 -20 -21 -18 -2 -22 -4
right_child=1 6 10 -5 -6 -7 11 9 -10 15 -12 -13 -14 -15 -16 -17 21 18 19 20 23 -23 -24 -25 -26
leaf_value=0.0014451243992774719 -0.0012294847912648146 0.00024386840944106762 0.002656208761036396 0.00015039582053820292 0.00019748520851135256 0.0024857981299812142 -0.0010634188869824777 0.0021860377008424089 -0.00015127438713203779 0.00069957145329179436 0.0018086992204189301 -0.00017889017860094706 0.00047015699831878436 -0.00051175517232521727 -0.00084954568208792276 0.0012415573828750187 -0.0016731750130653381 -0.00082768122939502493 -0.0015202002682619625 -0.00077581533363887251 -0.0013257976834263122 -0.0011861980855464936 -0.0016607070394924709 -0.0011373850438329909 0.0026704418400059575
leaf_weight=31 34 26 24 30 25 22 26 34 22 29 26 24 34 23 39 27 25 34 36 49 28 20 21 45 23
leaf_count=31 34 26 24 30 25 22 26 34 22 29 26 24 34 23 39 27 25 34 36 49 28 20 21 45 23
internal_value=0 -0.000812603 0.00152633 -0.00105274 0.00120648 0.00135935 -0.000160802 0.00118605 0.000782468 0.00142372 0.00235884 -0.000638845 0.000127175 -0.000110812 -0.00116179 0.000960886 -0.00120349 -0.00115735 -0.00108952 -0.00114587 -0.00103541 -0.00145674 -0.00139413 -0.00120965 0.00266317
internal_weight=0 494 263 361 190 165 133 143 53 90 73 50 83 49 331 56 292 247 192 158 122 45 55 73 47
internal_count=757 494 263 361 190 165 133 143 53 90 73 50 83 49 331 56 292 247 192 158 122 45 55 73 47
is_linear=0
shrinkage=0.005


Tree=36
num_leaves=26
num_cat=0
split_feature=5 0 4 4 3 9 0 4 9 4 4 4 4 4 4 4 4 4 4 4 4 4 4 4 4
split_gain=37.1818 11.0625 3.21438 3.06201 1.87558 0.927722 0.810412 0.483065 0.550754 0.376958 0.219745 0.12571 0.149881 0.149634 0.136526 0.250758 0.126504 0.0993737 0.0721859 0.10642 0.0672499 0.0575225 0.18431 0.00515472 0.00343884
threshold=1.0000000180025095e-35 2.5000000000000004 23.725000000000005 26.268750000000004 1.0000000180025095e-35 1.0000000180025095e-35 1.5000000000000002 30.750000000000004 1.0000000180025095e-35 10.508350000000002 8.0812500000000025 13.931250000000002 7.910400000000001 8.3312500000000025 7.8667000000000007 7.7625000000000011 18.768750000000004 9.4791500000000024 135.06665000000001 29.850000000000005 20.787500000000005 7.2396000000000003 7.133350000000001 11.750000000000002 65.800000000000011
decision_type=2 2 2 2 2 2 2 2 2 2 2 2 2 2 2 2 2 2 2 2 2 2 2 2 2
left_child=3 18 5 4 11 10 7 -5 -9 -7 -3 12 14 -14 15 21 -13 -15 19 20 -2 22 -1 -19 -21
right_child=1 2 -4 6 -6 9 -8 8 -10 -11 -12 16 13 17 -16 -17 -18 23 -20 24 -22 -23 -24 -25 -26
leaf_value=-0.0013810124993324281 0.0025550823410352068 0.0017229063470255246 -0.0012539695332879606 0.00062462276220321658 0.00014964386324087779 4.1198539547622205e-05 -0.00073450260219119854 0.00040091077295633466 -0.00055980084197861807 0.00085172838889635539 0.0010078453804765429 -0.0016825219421159655 -0.00077193626335689009 -0.001428024873137474 -0.0015058128490592494 -0.00069728397130966186 -0.0011729579701505858 -0.00097151284771306175 0.0022171542048454286 0.002732274901866913 0.0022202941775321962 -0.0014108603330034958 -0.00078850406266394119 -0.0010644082399085164 0.0026545316432461598
leaf_weight=35 30 22 23 30 30 32 42 26 35 26 21 21 49 20 33 25 29 28 21 25 30 38 21 32 33
leaf_count=35 30 22 23 30 30 32 42 26 35 26 21 21 49 20 33 25 29 28 21 25 30 38 21 32 33
internal_value=0 0.0015187 0.000432989 -0.00080854 -0.00104748 0.000817148 -0.000159998 0.000105158 -0.000150317 0.00040454 0.00137369 -0.00115598 -0.00111487 -0.000989526 -0.00122125 -0.00114234 -0.00138697 -0.0011228 0.00248725 0.00253532 0.00238769 -0.00126071 -0.00115882 -0.00102106 0.00268804
internal_weight=0 263 124 494 361 101 133 91 61 58 43 331 281 129 152 119 50 80 139 118 60 94 56 60 58
internal_count=757 263 124 494 361 101 133 91 61 58 43 331 281 129 152 119 50 80 139 118 60 94 56 60 58
is_linear=0
shrinkage=0.005


Tree=37
num_leaves=25
num_cat=0
split_feature=6 1 2 7 1 7 3 1 1 1 1 2 1 9 2 1 1 1 1 2 1 2 1 1
split_gain=36.8109 4.45315 1.91094 0.997471 0.547594 0.594612 0.513418 0.403001 0.326397 0.593041 0.50464 0.29404 0.136176 0.196324 0.233293 0.112913 0.108239 0.100407 0.0818303 0.0808014 0.056415 0.0428211 0.0416196 0.0430401
threshold=1.0000000180025095e-35 6.5000000000000009 1.5000000000000002 1.0000000180025095e-35 47.500000000000007 1.0000000180025095e-35 1.5000000000000002 32.250000000000007 26.500000000000004 32.250000000000007 30.500000000000004 1.0000000180025095e-35 19.500000000000004 1.0000000180025095e-35 1.0000000180025095e-35 52.500000000000007 25.500000000000004 23.250000000000004 35.500000000000007 1.0000000180025095e-35 19.500000000000004 1.0000000180025095e-35 39.500000000000007 46.500000000000007
decision_type=2 2 2 2 2 2 2 2 2 2 2 2 2 2 2 2 2 2 2 2 2 2 2 2
left_child=2 -2 4 8 5 6 7 12 17 10 -10 16 -1 -14 -15 18 -5 19 -11 20 -3 -19 -20 -24
right_child=1 3 -4 11 -6 -7 -8 -9 9 15 -12 -13 13 14 -16 -17 -18 21 22 -21 -22 -23 23 -25
leaf_value=0.0017545656535936439 0.001394373984499411 -0.0012105141161009669 0.00032333803673585259 -0.00074861678568755876 0.002455076180398464 0.0020931218110996743 0.00081982488985414851 0.0020288216529621016 -0.00077032930967284416 -0.0012392572669879249 0.00019843699038028719 0.00013522627204656603 0.0017217371883717449 0.0014020376887760664 0.00074536974940981194 -0.0013459033232468827 -0.0003045007068177928 -0.0010053303884342312 -0.00073170646429061891 -0.0010051074907893227 -0.00150301332859432 -0.0012455302736033565 -0.0010955044068396093 -0.00080821659077297563
leaf_weight=23 22 32 30 34 20 46 27 36 41 23 20 20 22 38 21 26 23 96 25 21 34 23 32 22
leaf_count=23 22 32 30 34 20 46 27 36 41 23 20 20 22 38 21 26 23 96 25 21 34 23 32 22
internal_value=0 -0.000804497 0.00151111 -0.000906987 0.00166404 0.00158976 0.00145112 0.00157286 -0.00100847 -0.000858417 -0.000452701 -0.000386389 0.00141503 0.00131862 0.00116831 -0.00105177 -0.000569412 -0.00114614 -0.000976789 -0.00127524 -0.0013612 -0.00105176 -0.000900374 -0.000978461
internal_weight=0 494 263 472 233 213 167 140 395 189 61 77 104 81 59 128 57 206 102 87 66 119 79 54
internal_count=757 494 263 472 233 213 167 140 395 189 61 77 104 81 59 128 57 206 102 87 66 119 79 54
is_linear=0
shrinkage=0.005


Tree=38
num_leaves=28
num_cat=0
split_feature=5 1 4 4 4 4 3 2 4 1 4 3 1 1 4 4 4 2 4 4 4 4 4 1 4 4 1
split_gain=36.4437 4.40873 3.28795 2.73807 1.14573 1.26601 1.10088 0.873404 0.94854 0.72168 0.657534 0.477633 0.315291 0.411418 0.627106 0.268476 0.274008 0.24302 0.209683 0.109667 0.25622 0.0967496 0.0939353 0.0437379 0.0566705 0.0174981 0.000153391
threshold=1.0000000180025095e-35 6.5000000000000009 26.268750000000004 47.000000000000007 27.825000000000003 25.527100000000001 1.0000000180025095e-35 1.0000000180025095e-35 10.316650000000001 26.500000000000004 7.7625000000000011 1.0000000180025095e-35 32.250000000000007 26.500000000000004 9.4791500000000024 52.277100000000011 30.035400000000003 1.0000000180025095e-35 16.050000000000004 7.910400000000001 13.208350000000001 7.2396000000000003 10.316650000000001 21.500000000000004 7.7812500000000009 7.977100000000001 32.250000000000007
decision_type=2 2 2 2 2 2 2 2 2 2 2 2 2 2 2 2 2 2 2 2 2 2 2 2 2 2 2
left_child=1 -1 12 4 5 7 15 8 10 -10 -2 26 13 17 -15 16 -4 21 -9 -14 -21 -3 23 -23 -25 -26 -5
right_child=3 2 6 11 -6 -7 -8 18 9 -11 -12 -13 19 14 -16 -17 -18 -19 -20 20 -22 22 -24 24 25 -27 -28
leaf_value=0.0013874020630663092 0.0015532001982564512 -0.001001601984931363 0.00024474415641564587 0.002637049880894748 0.00018984304666519168 0.0024550760130990635 -0.00088851503454721902 0.00022017311304807664 0.0012979076543579932 0.0025251462042331697 0.00038177192211151121 0.0017828364956837435 -0.0016330642672255636 -0.0001530588631119047 -0.0012673088843407837 0.00047133935724987707 -0.00050445748412090801 -0.00075755682773888118 0.00089563935443207066 -0.001014992422179172 -0.0016667486608028413 -0.0012188658030594097 -0.0010562062915414573 -0.001234085404354593 -0.0016355255051799442 -0.0014425310368339219 0.0026189473986625673
leaf_weight=22 23 36 26 22 25 22 39 20 23 25 25 26 32 28 23 34 23 32 27 38 25 34 32 23 23 24 25
leaf_count=22 23 36 26 22 25 22 39 20 23 25 25 26 32 28 23 34 23 32 27 38 25 34 32 23 23 24 25
internal_value=0 -0.000800475 -0.000902452 0.00150355 0.00118733 0.00133846 -0.000195621 0.00116667 0.00144009 0.00193709 0.000943081 0.00232661 -0.00114883 -0.00105724 -0.000655564 0.000129956 -0.000106922 -0.00115765 0.000608207 -0.0013947 -0.00127363 -0.00123209 -0.0012931 -0.00136599 -0.00143745 -0.00153698 0.00262742
internal_weight=0 494 472 263 190 165 122 143 96 48 48 73 350 255 51 83 49 204 47 95 63 172 136 104 70 47 47
internal_count=757 494 472 263 190 165 122 143 96 48 48 73 350 255 51 83 49 204 47 95 63 172 136 104 70 47 47
is_linear=0
shrinkage=0.005


Tree=39
num_leaves=19
num_cat=0
split_feature=5 0 0 2 2 2 2 7 7 0 8 8 2 0 7 0 2 0
split_gain=36.0801 10.8659 2.94494 1.13447 0.30832 0.289215 0.498394 0.249687 0.170948 0.0983759 0.0698581 0.049054 0.0381233 0.0296702 0.023984 0.00584491 0.00277864 3.66e-06
threshold=1.0000000180025095e-35 2.5000000000000004 1.5000000000000002 1.0000000180025095e-35 1.5000000000000002 2.5000000000000004 1.0000000180025095e-35 1.0000000180025095e-35 1.0000000180025095e-35 2.5000000000000004 1.0000000180025095e-35 1.0000000180025095e-35 1.0000000180025095e-35 2.5000000000000004 1.0000000180025095e-35 1.5000000000000002 1.0000000180025095e-35 1.5000000000000002
decision_type=2 2 2 2 2 2 2 2 2 2 2 2 2 2 2 2 2 2
left_child=2 12 8 10 -5 6 7 9 16 -4 -3 -11 14 -8 15 -2 -1 -14
right_child=1 3 5 4 -6 -7 13 -9 -10 11 -12 -13 17 -15 -16 -17 -18 -19
leaf_value=-0.00018724206025185793 0.0026503605643908184 0.00075056944973766809 -0.0012723867169448309 0.00019143939894788407 -0.00056821199980649085 -0.0015595237697873796 -0.00046511088808377587 -0.00066140574780670371 0.0002794655179604888 -0.001017472567350677 0.0011022897139191627 -0.0012582786753773689 0.0023660711773804254 -0.0006699894195379214 0.0023827039226889612 0.002544846764632634 -0.00011664869636297226 0.0023636458654488837
leaf_weight=46 21 48 63 34 22 21 30 37 32 178 20 24 35 43 20 35 20 28
leaf_count=46 21 48 63 34 22 21 30 37 32 178 20 24 35 43 20 35 20 28
internal_value=0 0.00149604 -0.000796472 0.000420011 -0.000106995 -0.00098852 -0.000956544 -0.00104616 -2.04409e-05 -0.00109988 0.000854017 -0.00104608 0.00245594 -0.000585793 0.00253133 0.00258441 -0.00016585 0.00236499
internal_weight=0 263 494 124 56 396 375 302 98 265 68 202 139 73 76 56 66 63
internal_count=757 263 494 124 56 396 375 302 98 265 68 202 139 73 76 56 66 63
is_linear=0
shrinkage=0.005


Tree=40
num_leaves=25
num_cat=0
split_feature=0 1 1 0 3 1 2 8 1 1 1 1 2 1 7 1 1 1 1 2 2 1 1 1
split_gain=13.0537 3.36898 2.08937 1.97442 1.73994 1.03659 0.998126 0.903485 0.820161 0.796094 0.856256 0.757576 0.650732 0.561312 0.559054 0.247656 0.331189 0.190329 0.147906 0.147781 0.078321 0.0256442 0.0197206 0.0128072
threshold=2.5000000000000004 17.500000000000004 6.5000000000000009 1.5000000000000002 1.0000000180025095e-35 32.250000000000007 2.5000000000000004 1.0000000180025095e-35 25.500000000000004 44.500000000000007 31.500000000000004 27.500000000000004 1.0000000180025095e-35 29.500000000000004 1.0000000180025095e-35 43.500000000000007 26.500000000000004 36.250000000000007 39.500000000000007 1.0000000180025095e-35 1.0000000180025095e-35 19.500000000000004 32.250000000000007 22.500000000000004
decision_type=2 2 2 2 2 2 2 2 2 2 2 2 2 2 2 2 2 2 2 2 2 2 2 2
left_child=1 -1 -2 9 15 6 7 8 14 10 19 -10 -11 -13 20 16 -5 -12 -7 -3 21 -4 -18 -23
right_child=2 3 5 4 -6 18 -8 -9 11 12 17 13 -14 -15 -16 -17 22 -19 -20 -21 -22 23 -24 -25
leaf_value=0.0023374361296494804 0.00076234101697250645 0.00069328876617162128 -0.00084292708230870113 -0.0003717652276942605 0.0012675331586173603 -0.00097827901296755853 -0.0015585442535255268 0.00012155211602266018 0.00068942219763994215 -1.0972537340656404e-05 0.0020991286564440953 -0.0010771096462295169 0.0011134173450144855 4.2233057320117952e-05 -0.00025070245936512948 -0.00061396500894001556 0.00032818879932165144 0.0014259539402666547 -0.0014322177085437273 0.0011994959768794832 -0.0006761456363730961 -0.0010945547846230594 0.00013880182747487668 -0.0009703776533050197
leaf_weight=30 27 46 28 38 28 34 23 52 20 31 21 21 22 24 40 21 28 21 38 21 27 33 27 56
leaf_count=30 27 46 28 38 28 34 23 52 20 31 21 21 22 24 40 21 28 21 38 21 27 33 27 56
internal_value=0 0.000738901 -0.000583435 0.000581151 0.000150757 -0.000675193 -0.0005546 -0.000477887 -0.000603071 0.00095841 0.00120282 -0.000120266 0.000455755 -0.000480127 -0.000773627 -0.000123539 -1.27972e-05 0.00176254 -0.00121786 0.000851951 -0.000918884 -0.000974901 0.000235217 -0.00101642
internal_weight=0 334 423 304 142 396 324 301 249 162 109 65 53 45 184 114 93 42 72 67 144 117 55 89
internal_count=757 334 423 304 142 396 324 301 249 162 109 65 53 45 184 114 93 42 72 67 144 117 55 89
is_linear=0
shrinkage=0.005


Tree=41
num_leaves=15
num_cat=0
split_feature=5 2 7 7 3 3 2 2 3 9 2 9 2 2
split_gain=35.6379 1.85469 0.92087 0.491271 0.469153 0.46234 1.51733 0.197797 0.189857 0.107814 0.154018 0.072845 0.00156085 1.43153e-05
threshold=1.0000000180025095e-35 1.5000000000000002 1.0000000180025095e-35 1.0000000180025095e-35 1.5000000000000002 1.0000000180025095e-35 2.5000000000000004 1.0000000180025095e-35 1.0000000180025095e-35 1.0000000180025095e-35 1.0000000180025095e-35 1.0000000180025095e-35 1.0000000180025095e-35 1.0000000180025095e-35
decision_type=2 2 2 2 2 2 2 2 2 2 2 2 2 2
left_child=2 3 5 4 8 11 -7 -4 9 -2 -11 -1 -5 -13
right_child=1 -3 7 12 -6 6 -8 -9 -10 10 -12 13 -14 -15
leaf_value=-0.0011884512872465196 0.0018249897181987762 0.00031667757034301762 -0.00044245567867311382 0.0020777966268360616 0.00092923257885308102 6.226311836923871e-05 -0.0015586662224747918 0.00013292105495929719 0.0019724741097419491 0.001597518256259343 0.0011670221917090878 -0.00093502912886332776 0.0020230872522700918 -0.00093195823783224271
leaf_weight=31 25 30 59 32 29 42 22 20 31 63 31 276 22 44
leaf_count=31 25 30 59 32 29 42 22 20 31 63 31 276 22 44
internal_value=0 0.00148684 -0.000791575 0.0016375 0.0015114 -0.000885763 -0.000494931 -0.000296791 0.00162395 0.00153316 0.00145555 -0.000957026 0.00205551 -0.000934607
internal_weight=0 263 494 233 179 415 64 79 150 119 94 351 54 320
internal_count=757 263 494 233 179 415 64 79 150 119 94 351 54 320
is_linear=0
shrinkage=0.005


Tree=42
num_leaves=25
num_cat=0
split_feature=5 0 1 0 2 3 1 1 1 1 1 1 1 1 1 3 1 1 1 1 1 1 1 0
split_gain=35.2824 10.6745 4.33075 3.12771 1.11323 0.48679 0.424623 0.461736 0.312445 0.829174 0.103876 0.0954215 0.0438548 0.0400222 0.0716177 0.0390538 0.0635255 0.0376972 0.159968 0.0301504 0.0909757 0.0293756 0.0127007 0.0028718
